<?xml version="1.0"?>
<MethodSetup Method="MLP::MLP">
  <GeneralInfo>
    <Info name="TMVA Release" value="4.0.1 [262145]"/>
    <Info name="ROOT Release" value="5.24/00 [333824]"/>
    <Info name="Creator" value="twig"/>
    <Info name="Date" value="Thu Dec 10 10:40:29 2009"/>
    <Info name="Host" value="Darwin dyn1205-245.wlan.ic.ac.uk 10.0.0 Darwin Kernel Version 10.0.0: Fri Jul 31 22:47:34 PDT 2009; root:xnu-1456.1.25~1/RELEASE_I386 i386"/>
    <Info name="Dir" value="/Users/twig/gbmsci/tmva"/>
    <Info name="Training events" value="11436"/>
    <Info name="TrainingTime" value="334.55"/>
    <Info name="AnalysisType" value="Classification"/>
  </GeneralInfo>
  <Options>
    <Option name="NCycles" modified="Yes">600</Option>
    <Option name="HiddenLayers" modified="Yes">N+5</Option>
    <Option name="NeuronType" modified="Yes">tanh</Option>
    <Option name="NeuronInputType" modified="No">sum</Option>
    <Option name="V" modified="Yes">False</Option>
    <Option name="VerbosityLevel" modified="No">Default</Option>
    <Option name="VarTransform" modified="Yes">N</Option>
    <Option name="H" modified="Yes">False</Option>
    <Option name="CreateMVAPdfs" modified="Yes">True</Option>
    <Option name="IgnoreNegWeightsInTraining" modified="No">False</Option>
    <Option name="TrainingMethod" modified="No">BP</Option>
    <Option name="LearningRate" modified="No">2.000000e-02</Option>
    <Option name="DecayRate" modified="No">1.000000e-02</Option>
    <Option name="TestRate" modified="Yes">5</Option>
    <Option name="Sampling" modified="No">1.000000e+00</Option>
    <Option name="SamplingEpoch" modified="No">1.000000e+00</Option>
    <Option name="SamplingImportance" modified="No">1.000000e+00</Option>
    <Option name="SamplingTraining" modified="No">True</Option>
    <Option name="SamplingTesting" modified="No">False</Option>
    <Option name="ResetStep" modified="No">50</Option>
    <Option name="Tau" modified="No">3.000000e+00</Option>
    <Option name="BPMode" modified="No">sequential</Option>
    <Option name="BatchSize" modified="No">-1</Option>
    <Option name="ConvergenceImprove" modified="No">0.000000e+00</Option>
    <Option name="ConvergenceTests" modified="No">-1</Option>
  </Options>
  <Variables NVar="13">
    <Variable VarIndex="0" Expression="lv_met_Et" Label="lv_met_Et" Title="lv_met_Et" Unit="" Internal="lv_met_Et" Type="F" Min="0.0869568" Max="1045.86"/>
    <Variable VarIndex="1" Expression="lv_electron_Et" Label="lv_electron_Et" Title="lv_electron_Et" Unit="" Internal="lv_electron_Et" Type="F" Min="15.0049" Max="281.077"/>
    <Variable VarIndex="2" Expression="lv_tau_Et" Label="lv_tau_Et" Title="lv_tau_Et" Unit="" Internal="lv_tau_Et" Type="F" Min="20.0104" Max="1279.54"/>
    <Variable VarIndex="3" Expression="dphielectau" Label="dphielectau" Title="dphielectau" Unit="" Internal="dphielectau" Type="F" Min="0.00320381" Max="3.14148"/>
    <Variable VarIndex="4" Expression="dphielecmet" Label="dphielecmet" Title="dphielecmet" Unit="" Internal="dphielecmet" Type="F" Min="1.66893e-05" Max="3.1412"/>
    <Variable VarIndex="5" Expression="mtelecmet" Label="mtelecmet" Title="mtelecmet" Unit="" Internal="mtelecmet" Type="F" Min="0.000435188" Max="341.259"/>
    <Variable VarIndex="6" Expression="electronEcalIso" Label="electronEcalIso" Title="electronEcalIso" Unit="" Internal="electronEcalIso" Type="F" Min="0" Max="36.0479"/>
    <Variable VarIndex="7" Expression="electronTrackIso" Label="electronTrackIso" Title="electronTrackIso" Unit="" Internal="electronTrackIso" Type="F" Min="0" Max="69.3651"/>
    <Variable VarIndex="8" Expression="tauTrack" Label="tauTrack" Title="tauTrack" Unit="" Internal="tauTrack" Type="I" Min="0" Max="9"/>
    <Variable VarIndex="9" Expression="tauLeadTrk" Label="tauLeadTrk" Title="tauLeadTrk" Unit="" Internal="tauLeadTrk" Type="I" Min="0" Max="1"/>
    <Variable VarIndex="10" Expression="tauECALIso" Label="tauECALIso" Title="tauECALIso" Unit="" Internal="tauECALIso" Type="I" Min="0" Max="1"/>
    <Variable VarIndex="11" Expression="tauElectron" Label="tauElectron" Title="tauElectron" Unit="" Internal="tauElectron" Type="I" Min="0" Max="1"/>
    <Variable VarIndex="12" Expression="tauCharge" Label="tauCharge" Title="tauCharge" Unit="" Internal="tauCharge" Type="I" Min="-5" Max="3"/>
  </Variables>
  <Transformations NTransformations="1">
    <Transform Name="Normalize" NVariables="13" NTargets="0">
      <Class ClassIndex="0">
        <Variables>
          <Variable VarIndex="0" Min="6.2378573417663574e-01" Max="2.4831164550781250e+02"/>
          <Variable VarIndex="1" Min="1.5025059700012207e+01" Max="1.0135930633544922e+02"/>
          <Variable VarIndex="2" Min="2.0182920455932617e+01" Max="2.3590536499023438e+02"/>
          <Variable VarIndex="3" Min="1.1445329524576664e-02" Max="3.1414437294006348e+00"/>
          <Variable VarIndex="4" Min="3.3310353755950928e-03" Max="3.1384119987487793e+00"/>
          <Variable VarIndex="5" Min="8.8814057409763336e-02" Max="1.0255261230468750e+02"/>
          <Variable VarIndex="6" Min="0.0000000000000000e+00" Max="1.4199071884155273e+01"/>
          <Variable VarIndex="7" Min="0.0000000000000000e+00" Max="1.8475032806396484e+01"/>
          <Variable VarIndex="8" Min="0.0000000000000000e+00" Max="9.0000000000000000e+00"/>
          <Variable VarIndex="9" Min="0.0000000000000000e+00" Max="1.0000000000000000e+00"/>
          <Variable VarIndex="10" Min="0.0000000000000000e+00" Max="1.0000000000000000e+00"/>
          <Variable VarIndex="11" Min="0.0000000000000000e+00" Max="1.0000000000000000e+00"/>
          <Variable VarIndex="12" Min="-3.0000000000000000e+00" Max="3.0000000000000000e+00"/>
        </Variables>
        <Targets/>
      </Class>
      <Class ClassIndex="1">
        <Variables>
          <Variable VarIndex="0" Min="8.6956754326820374e-02" Max="1.0458632812500000e+03"/>
          <Variable VarIndex="1" Min="1.5004927635192871e+01" Max="2.8107736206054688e+02"/>
          <Variable VarIndex="2" Min="2.0010427474975586e+01" Max="1.2795351562500000e+03"/>
          <Variable VarIndex="3" Min="3.2038069330155849e-03" Max="3.1414759159088135e+00"/>
          <Variable VarIndex="4" Min="1.6689300537109375e-05" Max="3.1412041187286377e+00"/>
          <Variable VarIndex="5" Min="4.3518829625099897e-04" Max="3.4125888061523438e+02"/>
          <Variable VarIndex="6" Min="0.0000000000000000e+00" Max="3.6047866821289062e+01"/>
          <Variable VarIndex="7" Min="0.0000000000000000e+00" Max="6.9365066528320312e+01"/>
          <Variable VarIndex="8" Min="0.0000000000000000e+00" Max="9.0000000000000000e+00"/>
          <Variable VarIndex="9" Min="0.0000000000000000e+00" Max="1.0000000000000000e+00"/>
          <Variable VarIndex="10" Min="0.0000000000000000e+00" Max="1.0000000000000000e+00"/>
          <Variable VarIndex="11" Min="0.0000000000000000e+00" Max="1.0000000000000000e+00"/>
          <Variable VarIndex="12" Min="-5.0000000000000000e+00" Max="3.0000000000000000e+00"/>
        </Variables>
        <Targets/>
      </Class>
      <Class ClassIndex="2">
        <Variables>
          <Variable VarIndex="0" Min="8.6956754326820374e-02" Max="1.0458632812500000e+03"/>
          <Variable VarIndex="1" Min="1.5004927635192871e+01" Max="2.8107736206054688e+02"/>
          <Variable VarIndex="2" Min="2.0010427474975586e+01" Max="1.2795351562500000e+03"/>
          <Variable VarIndex="3" Min="3.2038069330155849e-03" Max="3.1414759159088135e+00"/>
          <Variable VarIndex="4" Min="1.6689300537109375e-05" Max="3.1412041187286377e+00"/>
          <Variable VarIndex="5" Min="4.3518829625099897e-04" Max="3.4125888061523438e+02"/>
          <Variable VarIndex="6" Min="0.0000000000000000e+00" Max="3.6047866821289062e+01"/>
          <Variable VarIndex="7" Min="0.0000000000000000e+00" Max="6.9365066528320312e+01"/>
          <Variable VarIndex="8" Min="0.0000000000000000e+00" Max="9.0000000000000000e+00"/>
          <Variable VarIndex="9" Min="0.0000000000000000e+00" Max="1.0000000000000000e+00"/>
          <Variable VarIndex="10" Min="0.0000000000000000e+00" Max="1.0000000000000000e+00"/>
          <Variable VarIndex="11" Min="0.0000000000000000e+00" Max="1.0000000000000000e+00"/>
          <Variable VarIndex="12" Min="-5.0000000000000000e+00" Max="3.0000000000000000e+00"/>
        </Variables>
        <Targets/>
      </Class>
    </Transform>
  </Transformations>
  <MVAPdfs>
    <PDF Name="MLP_PDFSig" MinNSmooth="0" MaxNSmooth="0" InterpolMethod="2" KDE_type="1" KDE_iter="1" KDE_border="1" KDE_finefactor="1.0000000000000000e+00">
      <Histogram Name="MLP_tr_S_original" NBins="228" XMin="-1.1791406869888306e+00" XMax="-8.0852264165878296e-01" HasEquidistantBins="1">
        0 0 0 0 0 0 0 0 0 0 0 0 0 0 0 0 0 0 0 0 0 0 0 0 0 0 0 0 0 0 0 0 0 0 0 0 0 0 0 0 0 0 0 0 0 0 0 0 0 0 0 0 0 0 0 0 0 0 0 0 0 0 0 0 0 0 0 0 0 0 0 0 0 0 0 0 0 0 0 0 0 0 0 0 0 0 0 0 0 0 0 0 0 0 0 0 0 0 0 0 0 0 0 0 0 0 0 0 0 0 0 0 0 0 0 0 0 0 0 0 0 0 0 1.52652 0 0 0 0 1.52652 1.52652 3.05305 1.52652 4.57957 3.05305 1.52652 9.15914 4.57957 6.10609 6.10609 12.2122 9.15914 9.15914 12.2122 1.52652 12.2122 16.7917 35.11 13.7387 15.2652 18.3183 13.7387 9.15914 15.2652 15.2652 7.63261 18.3183 13.7387 24.4244 18.3183 10.6857 29.0039 15.2652 22.8978 18.3183 13.7387 16.7917 13.7387 13.7387 19.8448 12.2122 10.6857 12.2122 6.10609 6.10609 7.63261 4.57957 6.10609 1.52652 3.05305 0 6.10609 1.52652 1.52652 0 0 1.52652 3.05305 3.05305 0 1.52652 0 1.52652 0 0 1.52652 1.52652 1.52652 1.52652 0 0 0 0 1.52652 0 1.52652 3.05305 3.05305 0 0 0 0 0 0 0 0 0 0 0 0 0 0 0 0 0 0 0 0 0 
      </Histogram>
    </PDF>
    <PDF Name="MLP_PDFBkg" MinNSmooth="0" MaxNSmooth="0" InterpolMethod="2" KDE_type="1" KDE_iter="1" KDE_border="1" KDE_finefactor="1.0000000000000000e+00">
      <Histogram Name="MLP_tr_B_original" NBins="228" XMin="-1.1791406869888306e+00" XMax="-8.0852264165878296e-01" HasEquidistantBins="1">
        0.055764 0 0 0 0 0 0 0 0 0 0 0 0 0 0 0 0 0 0 0 0 0 0 0 0 0 0 0 0 0 0 0 0 0 0 0 0 0 0 0 0 0 0 0 0 0 0 0 0 0 0 0 0 0 0 0 0 0 0 0 0 0 0 0 0.055764 0 0 0 0 0 0 0.055764 0 0 0.055764 0 0 0 0 0 0 0 0 0 0 0 0 0 0.055764 0 0 0 0 0 0 0 0 0 0 0 0 0 0.055764 0 0 0.055764 0 0.111528 0.055764 0.055764 0 0.055764 0 0 0.111528 0.167292 0.055764 0.167292 0.111528 0.055764 0.223056 0.334584 0.27882 0.501876 0.780696 0.501876 0.446112 0.83646 1.05952 1.67292 2.45362 3.12278 4.07077 6.52439 6.9705 8.14155 9.98176 10.7625 10.7625 12.4354 11.4316 12.2123 16.5061 16.7292 18.7367 19.852 21.2461 20.2423 24.7035 21.0788 20.4654 17.6772 17.956 15.5582 16.0043 13.3276 14.2198 15.6697 15.837 17.5657 16.3389 16.5619 15.1678 14.4429 14.2756 12.1566 10.9855 10.3721 8.58766 6.63592 7.7512 7.69543 6.18981 4.73994 4.68418 2.28632 2.84396 2.0075 1.95174 2.0075 2.0075 1.11528 1.05952 1.3941 0.947988 0.724932 0.669168 1.05952 0.501876 0.947988 0.55764 0.334584 0.669168 0.334584 0.501876 0.501876 0.390348 0.27882 0.111528 0.167292 0.27882 0.167292 0.167292 0.111528 0.111528 0.446112 0.167292 0.501876 0.167292 0.334584 0 0.111528 0.167292 0 0.055764 0 0 0 0 0 0.055764 0.111528 0 0 0 0.055764 0 0 
      </Histogram>
    </PDF>
  </MVAPdfs>
  <Weights NLayers="3">
    <Layer Index="0" NNeurons="14">
      <Neuron NSynapses="18">
        -2.3624834291754655e+00 -2.0392547875473976e+00 2.4156600866330291e+00 -1.4289998954789909e+00 1.8364475743639153e+00 -8.6271252293382472e-01 6.2283754135681757e-01 6.2493448095173842e-01 6.0300685367885709e-01 1.3583582374654168e+00 -1.8229806570321738e+00 -7.6835100133752088e-01 6.3425517536517051e-01 5.2471361450804332e-01 1.4649830407383475e+00 -9.5064722128922460e-02 -2.1001190706473405e-01 1.8659168520280935e+00 
      </Neuron>
      <Neuron NSynapses="18">
        -1.2600876136920816e+00 -1.4440479879169854e+00 1.7526931389845837e+00 -4.6103626797677427e-01 9.3263555970397072e-01 -1.5630491769823249e+00 -6.0444154625382096e-01 1.1480515882921200e-01 1.9289219224587280e+00 -2.0903799391604614e+00 -1.5708314100459235e+00 -8.8406114409243830e-01 -1.0668593308214986e+00 1.1653519502241556e+00 -1.1403640494902900e+00 1.6290495033564287e+00 8.3001538738663061e-01 7.3236247230273788e-01 
      </Neuron>
      <Neuron NSynapses="18">
        -1.7818456777711802e+00 -1.6736417951865874e+00 1.3635444614325740e+00 2.0453746869518228e+00 1.2422780300832668e+00 1.1235902898919570e+00 -1.9779882662112076e+00 1.3712673362760472e+00 -8.5568974778849352e-02 1.6678563235614272e-01 -5.4997437539719340e-01 1.5560358784326327e+00 1.9462029721785328e+00 -8.9127286868221223e-01 -1.2189185545367860e+00 -2.0722723513589911e+00 1.2790758164610134e+00 -1.5806371930097596e+00 
      </Neuron>
      <Neuron NSynapses="18">
        1.4397536659877836e+00 -2.0324018859758972e-01 -3.3584647762976917e-03 -7.3631964364215519e-01 7.7987769578678590e-02 6.7775314319171398e-01 -3.1750910932210480e-01 8.7749009157921365e-01 1.5588888590078254e+00 -3.6706011063936528e-01 -1.0715316945198816e-01 1.3708608851734494e+00 -1.1885707713238081e+00 -1.3777240703305917e+00 -1.4219462783434373e+00 -1.5408565318647232e+00 -4.9875098209285074e-01 1.7647034715184660e+00 
      </Neuron>
      <Neuron NSynapses="18">
        8.6892773044197017e-03 5.5219831775069739e-01 6.9275250446357584e-01 -2.8204592074974782e-01 -4.9206403662082360e-01 6.8470893396694199e-01 -9.2663163965628820e-02 5.6057961724704519e-01 -1.4158757597365972e+00 1.1362187930313978e+00 6.2156641991162975e-01 -3.8614471618184439e-02 -3.0874169389747824e-01 -2.4629418843720141e-01 -3.2699984606873139e-01 -1.8709308891699614e+00 -3.7775604348113312e-01 1.4951774801952042e+00 
      </Neuron>
      <Neuron NSynapses="18">
        6.3007119100036912e-01 -6.1409717237735573e-01 -1.5562760164988201e+00 1.6664326942591763e+00 2.0304764895295171e+00 -1.4440463853908305e+00 -9.2691987188471259e-01 -1.8891718311274841e+00 -1.0163796506562344e+00 -1.7461179614045328e+00 1.2583693981079180e+00 -7.8801228195057016e-01 6.2246348493697867e-01 -1.0892678557385200e+00 1.0360136422808421e+00 4.4196350673968848e-01 -1.3367018851105958e+00 1.8237225313944159e+00 
      </Neuron>
      <Neuron NSynapses="18">
        -1.6123132421278477e+00 -1.8218217965921271e+00 7.2352156914225263e-01 -9.3992744209516543e-01 9.0667917960417521e-01 -8.7242342163402942e-01 3.7766085810110783e-01 6.3419208619243128e-01 -1.4923711064591498e+00 -1.1269806775618501e+00 -1.5877871923316449e+00 8.5936198719741619e-01 -1.5623094105304209e+00 -1.2104501816062401e+00 -1.6105321988937833e+00 1.3829441633243273e+00 -5.5321641294555468e-01 -1.5859241803572974e+00 
      </Neuron>
      <Neuron NSynapses="18">
        1.3784094137666234e+00 -2.5563095982644507e-01 1.3048624161215259e+00 -1.3603866017412523e+00 -3.7059252706921469e-01 -1.3567549808648465e+00 1.2014098033025972e-01 -2.0023834220414267e+00 -7.5007213036565235e-01 1.7645098032894782e+00 -1.2747431789389263e+00 2.8150838805506379e-01 -9.4315089528983176e-01 -1.1166308301765182e+00 1.9422239119670044e+00 -7.3080528582135529e-01 -7.4852591613507347e-01 -4.7392898687311907e-01 
      </Neuron>
      <Neuron NSynapses="18">
        8.1392389722027181e-01 5.5621807067814155e-01 7.8031093853230149e-01 9.9093090872204848e-01 1.1273165286771964e+00 -1.7352189736346262e+00 1.4578119504194007e+00 -1.5205707517274953e+00 -1.0586812784008481e+00 5.1587202651208153e-01 1.8960685611503209e-01 -2.3041155598801130e-01 9.6866441145156645e-01 -9.9058156374113415e-01 -4.5700079129236332e-01 7.4794667732495079e-01 1.6537393828025120e+00 -1.6298651247931567e-01 
      </Neuron>
      <Neuron NSynapses="18">
        7.1022613856853656e-02 1.1144380887070067e+00 -1.0326264797092319e+00 -7.5732743800055924e-01 -2.6896971846832779e-01 -7.5001912309986374e-02 -1.4166826642487951e+00 -1.5100525535465981e+00 -1.2073970763977926e+00 8.6301823155358315e-01 8.1404783454680130e-01 3.1929562535160111e-01 6.3473740009991964e-01 -1.6057652348748874e+00 -2.5201643898855192e-01 -1.1034691297191059e-01 -2.4720050231010535e-01 1.4491493219032481e+00 
      </Neuron>
      <Neuron NSynapses="18">
        -1.5030282059695452e+00 8.3265856998737553e-01 -8.7335390443590866e-01 -2.0730627204264299e-01 2.5249720445212381e-01 1.1082764025158371e+00 -1.0184668485760195e+00 -2.3027353905299019e-01 -7.9340281195372375e-01 -4.0143346474854175e-01 1.5451438970276898e-01 1.3319137851459344e+00 2.7454957983781297e-01 -3.6952628067556698e-02 -1.1736280743118326e-01 1.7121524873004815e-01 -1.4268409457003478e-02 -1.7653820316478003e-01 
      </Neuron>
      <Neuron NSynapses="18">
        -6.8236954794390725e-01 -3.6638821352968898e-01 -1.9583911626339953e-01 6.1541740805937151e-01 6.1554700584234878e-01 -1.2638889096880623e+00 -1.1409064053523574e+00 -4.0921358687574305e-01 -2.0798993560880819e-01 -1.1382003877814909e-01 9.4221101160214316e-02 -3.3751181176644346e-01 -8.4937659876609961e-01 -1.7022235956559470e-01 5.2924446414731419e-01 -9.5280730298002914e-01 -1.8469983188841940e-01 2.4544532612846576e-01 
      </Neuron>
      <Neuron NSynapses="18">
        1.1384606915898032e+00 1.5487364809743853e+00 -9.6561349045581113e-01 -7.6396866097616678e-01 1.5145705219115946e+00 3.1741803500062649e-01 -1.1041460117027126e+00 -9.5111566212562093e-01 -1.1233754511306022e+00 4.5863729752910432e-01 4.1914690442394614e-01 -1.6841313777819753e+00 -1.6366382420394867e+00 2.4986420061072070e-01 -1.3050454740594264e+00 -5.6250609000466412e-01 2.7571867173664194e-01 -2.3167943247250522e-01 
      </Neuron>
      <Neuron NSynapses="18">
        1.8663029886504774e+00 -1.5776958083858734e+00 9.2358010486688236e-01 8.6294445369944905e-01 -3.9881865842391456e-01 2.0604200766536338e+00 5.3847302972237543e-01 -3.1080772304681925e-01 -1.0243983687493114e+00 -7.0399506702851655e-01 -2.6607818364427605e-01 1.2617417159811415e+00 1.8443460783069603e+00 -7.4154106744720671e-01 1.3804138833757067e+00 7.8657931251339830e-01 4.6419928347116263e-01 -1.3650458347342991e+00 
      </Neuron>
    </Layer>
    <Layer Index="1" NNeurons="19">
      <Neuron NSynapses="1">
        -9.8521752451334621e-01 
      </Neuron>
      <Neuron NSynapses="1">
        1.2951657336567033e+00 
      </Neuron>
      <Neuron NSynapses="1">
        7.4476609370300095e-01 
      </Neuron>
      <Neuron NSynapses="1">
        3.0201234992436723e-02 
      </Neuron>
      <Neuron NSynapses="1">
        -9.1124706623833673e-01 
      </Neuron>
      <Neuron NSynapses="1">
        -7.1926571645364279e-01 
      </Neuron>
      <Neuron NSynapses="1">
        5.3233040143351772e-03 
      </Neuron>
      <Neuron NSynapses="1">
        -3.2329886083527021e-02 
      </Neuron>
      <Neuron NSynapses="1">
        1.1890404406114106e-02 
      </Neuron>
      <Neuron NSynapses="1">
        3.8540015765365157e-02 
      </Neuron>
      <Neuron NSynapses="1">
        -5.9573869209597308e-01 
      </Neuron>
      <Neuron NSynapses="1">
        1.8061863626086569e-02 
      </Neuron>
      <Neuron NSynapses="1">
        -1.9017219862352157e-02 
      </Neuron>
      <Neuron NSynapses="1">
        1.1179444788029531e-02 
      </Neuron>
      <Neuron NSynapses="1">
        -2.7951842816508286e-03 
      </Neuron>
      <Neuron NSynapses="1">
        4.9141118576390780e-02 
      </Neuron>
      <Neuron NSynapses="1">
        -4.2675237063377405e-02 
      </Neuron>
      <Neuron NSynapses="1">
        3.7800431459397025e-03 
      </Neuron>
      <Neuron NSynapses="1">
        -7.6843345265036514e-02 
      </Neuron>
    </Layer>
    <Layer Index="2" NNeurons="1">
      <Neuron NSynapses="0"/>
    </Layer>
  </Weights>
</MethodSetup>
