<?xml version="1.0"?>
<MethodSetup Method="MLP::MLP">
  <GeneralInfo>
    <Info name="TMVA Release" value="4.0.1 [262145]"/>
    <Info name="ROOT Release" value="5.24/00 [333824]"/>
    <Info name="Creator" value="twig"/>
    <Info name="Date" value="Thu Dec 10 10:59:08 2009"/>
    <Info name="Host" value="Darwin dyn1205-245.wlan.ic.ac.uk 10.0.0 Darwin Kernel Version 10.0.0: Fri Jul 31 22:47:34 PDT 2009; root:xnu-1456.1.25~1/RELEASE_I386 i386"/>
    <Info name="Dir" value="/Users/twig/gbmsci/tmva"/>
    <Info name="Training events" value="11436"/>
    <Info name="TrainingTime" value="341.949"/>
    <Info name="AnalysisType" value="Classification"/>
  </GeneralInfo>
  <Options>
    <Option name="NCycles" modified="Yes">600</Option>
    <Option name="HiddenLayers" modified="Yes">N+5</Option>
    <Option name="NeuronType" modified="Yes">tanh</Option>
    <Option name="NeuronInputType" modified="No">sum</Option>
    <Option name="V" modified="Yes">False</Option>
    <Option name="VerbosityLevel" modified="No">Default</Option>
    <Option name="VarTransform" modified="Yes">N</Option>
    <Option name="H" modified="Yes">False</Option>
    <Option name="CreateMVAPdfs" modified="Yes">True</Option>
    <Option name="IgnoreNegWeightsInTraining" modified="No">False</Option>
    <Option name="TrainingMethod" modified="No">BP</Option>
    <Option name="LearningRate" modified="No">2.000000e-02</Option>
    <Option name="DecayRate" modified="No">1.000000e-02</Option>
    <Option name="TestRate" modified="Yes">5</Option>
    <Option name="Sampling" modified="No">1.000000e+00</Option>
    <Option name="SamplingEpoch" modified="No">1.000000e+00</Option>
    <Option name="SamplingImportance" modified="No">1.000000e+00</Option>
    <Option name="SamplingTraining" modified="No">True</Option>
    <Option name="SamplingTesting" modified="No">False</Option>
    <Option name="ResetStep" modified="No">50</Option>
    <Option name="Tau" modified="No">3.000000e+00</Option>
    <Option name="BPMode" modified="No">sequential</Option>
    <Option name="BatchSize" modified="No">-1</Option>
    <Option name="ConvergenceImprove" modified="No">0.000000e+00</Option>
    <Option name="ConvergenceTests" modified="No">-1</Option>
  </Options>
  <Variables NVar="13">
    <Variable VarIndex="0" Expression="lv_met_Et" Label="lv_met_Et" Title="lv_met_Et" Unit="" Internal="lv_met_Et" Type="F" Min="0.0869568" Max="58682.1"/>
    <Variable VarIndex="1" Expression="lv_electron_Et" Label="lv_electron_Et" Title="lv_electron_Et" Unit="" Internal="lv_electron_Et" Type="F" Min="15.0001" Max="446.447"/>
    <Variable VarIndex="2" Expression="lv_tau_Et" Label="lv_tau_Et" Title="lv_tau_Et" Unit="" Internal="lv_tau_Et" Type="F" Min="20.0247" Max="897.134"/>
    <Variable VarIndex="3" Expression="dphielectau" Label="dphielectau" Title="dphielectau" Unit="" Internal="dphielectau" Type="F" Min="0.00320381" Max="3.14154"/>
    <Variable VarIndex="4" Expression="dphielecmet" Label="dphielecmet" Title="dphielecmet" Unit="" Internal="dphielecmet" Type="F" Min="3.65973e-05" Max="3.14154"/>
    <Variable VarIndex="5" Expression="mtelecmet" Label="mtelecmet" Title="mtelecmet" Unit="" Internal="mtelecmet" Type="F" Min="0.000435188" Max="3124.58"/>
    <Variable VarIndex="6" Expression="electronEcalIso" Label="electronEcalIso" Title="electronEcalIso" Unit="" Internal="electronEcalIso" Type="F" Min="0" Max="103.247"/>
    <Variable VarIndex="7" Expression="electronTrackIso" Label="electronTrackIso" Title="electronTrackIso" Unit="" Internal="electronTrackIso" Type="F" Min="0" Max="89.622"/>
    <Variable VarIndex="8" Expression="tauTrack" Label="tauTrack" Title="tauTrack" Unit="" Internal="tauTrack" Type="I" Min="0" Max="11"/>
    <Variable VarIndex="9" Expression="tauLeadTrk" Label="tauLeadTrk" Title="tauLeadTrk" Unit="" Internal="tauLeadTrk" Type="I" Min="0" Max="1"/>
    <Variable VarIndex="10" Expression="tauECALIso" Label="tauECALIso" Title="tauECALIso" Unit="" Internal="tauECALIso" Type="I" Min="0" Max="1"/>
    <Variable VarIndex="11" Expression="tauElectron" Label="tauElectron" Title="tauElectron" Unit="" Internal="tauElectron" Type="I" Min="0" Max="1"/>
    <Variable VarIndex="12" Expression="tauCharge" Label="tauCharge" Title="tauCharge" Unit="" Internal="tauCharge" Type="I" Min="-4" Max="4"/>
  </Variables>
  <Transformations NTransformations="1">
    <Transform Name="Normalize" NVariables="13" NTargets="0">
      <Class ClassIndex="0">
        <Variables>
          <Variable VarIndex="0" Min="8.6956754326820374e-02" Max="5.8682050781250000e+04"/>
          <Variable VarIndex="1" Min="1.5000106811523438e+01" Max="4.4644659423828125e+02"/>
          <Variable VarIndex="2" Min="2.0024724960327148e+01" Max="8.9713427734375000e+02"/>
          <Variable VarIndex="3" Min="3.2038069330155849e-03" Max="3.1414437294006348e+00"/>
          <Variable VarIndex="4" Min="3.6597251892089844e-05" Max="3.1415369510650635e+00"/>
          <Variable VarIndex="5" Min="4.3518829625099897e-04" Max="3.1245805664062500e+03"/>
          <Variable VarIndex="6" Min="0.0000000000000000e+00" Max="1.0324716949462891e+02"/>
          <Variable VarIndex="7" Min="0.0000000000000000e+00" Max="8.9621971130371094e+01"/>
          <Variable VarIndex="8" Min="0.0000000000000000e+00" Max="1.1000000000000000e+01"/>
          <Variable VarIndex="9" Min="0.0000000000000000e+00" Max="1.0000000000000000e+00"/>
          <Variable VarIndex="10" Min="0.0000000000000000e+00" Max="1.0000000000000000e+00"/>
          <Variable VarIndex="11" Min="0.0000000000000000e+00" Max="1.0000000000000000e+00"/>
          <Variable VarIndex="12" Min="-4.0000000000000000e+00" Max="4.0000000000000000e+00"/>
        </Variables>
        <Targets/>
      </Class>
      <Class ClassIndex="1">
        <Variables>
          <Variable VarIndex="0" Min="5.0939667224884033e-01" Max="6.5876373291015625e+02"/>
          <Variable VarIndex="1" Min="1.5075806617736816e+01" Max="1.1263946533203125e+02"/>
          <Variable VarIndex="2" Min="2.0047393798828125e+01" Max="2.7760333251953125e+02"/>
          <Variable VarIndex="3" Min="6.8943306803703308e-02" Max="3.1415433883666992e+00"/>
          <Variable VarIndex="4" Min="2.1409988403320312e-04" Max="3.1399137973785400e+00"/>
          <Variable VarIndex="5" Min="4.6043540351092815e-03" Max="2.8637271118164062e+02"/>
          <Variable VarIndex="6" Min="0.0000000000000000e+00" Max="2.2083932876586914e+01"/>
          <Variable VarIndex="7" Min="0.0000000000000000e+00" Max="1.5938583374023438e+01"/>
          <Variable VarIndex="8" Min="0.0000000000000000e+00" Max="7.0000000000000000e+00"/>
          <Variable VarIndex="9" Min="0.0000000000000000e+00" Max="1.0000000000000000e+00"/>
          <Variable VarIndex="10" Min="0.0000000000000000e+00" Max="1.0000000000000000e+00"/>
          <Variable VarIndex="11" Min="0.0000000000000000e+00" Max="1.0000000000000000e+00"/>
          <Variable VarIndex="12" Min="-3.0000000000000000e+00" Max="3.0000000000000000e+00"/>
        </Variables>
        <Targets/>
      </Class>
      <Class ClassIndex="2">
        <Variables>
          <Variable VarIndex="0" Min="8.6956754326820374e-02" Max="5.8682050781250000e+04"/>
          <Variable VarIndex="1" Min="1.5000106811523438e+01" Max="4.4644659423828125e+02"/>
          <Variable VarIndex="2" Min="2.0024724960327148e+01" Max="8.9713427734375000e+02"/>
          <Variable VarIndex="3" Min="3.2038069330155849e-03" Max="3.1415433883666992e+00"/>
          <Variable VarIndex="4" Min="3.6597251892089844e-05" Max="3.1415369510650635e+00"/>
          <Variable VarIndex="5" Min="4.3518829625099897e-04" Max="3.1245805664062500e+03"/>
          <Variable VarIndex="6" Min="0.0000000000000000e+00" Max="1.0324716949462891e+02"/>
          <Variable VarIndex="7" Min="0.0000000000000000e+00" Max="8.9621971130371094e+01"/>
          <Variable VarIndex="8" Min="0.0000000000000000e+00" Max="1.1000000000000000e+01"/>
          <Variable VarIndex="9" Min="0.0000000000000000e+00" Max="1.0000000000000000e+00"/>
          <Variable VarIndex="10" Min="0.0000000000000000e+00" Max="1.0000000000000000e+00"/>
          <Variable VarIndex="11" Min="0.0000000000000000e+00" Max="1.0000000000000000e+00"/>
          <Variable VarIndex="12" Min="-4.0000000000000000e+00" Max="4.0000000000000000e+00"/>
        </Variables>
        <Targets/>
      </Class>
    </Transform>
  </Transformations>
  <MVAPdfs>
    <PDF Name="MLP_PDFSig" MinNSmooth="0" MaxNSmooth="0" InterpolMethod="2" KDE_type="1" KDE_iter="1" KDE_border="1" KDE_finefactor="1.0000000000000000e+00">
      <Histogram Name="MLP_tr_S_original" NBins="228" XMin="-1.5525983572006226e+00" XMax="-1.4792184531688690e-01" HasEquidistantBins="1">
        0 0 0 0 0 0 0 0 0 0 0 0 0 0 0 0 0 0 0 0 0 0 0 0 0 0 0 0 0 0 0 0 0 0 0 0 0 0 0 0 0 0 0 0 0 0 0 0 0 0 0 0 0 0 0 0 0 0 0 0 0 0 0 0 0 0 0 0 0 0.290887 0 0 0 0 0 0 0 0 0 0 0 0 0 0 0 0.581774 0.290887 0.581774 0.581774 0.872661 0.290887 1.16355 0.581774 0.872661 1.45443 0.872661 0.872661 2.03621 2.03621 1.74532 4.36331 3.78153 4.65419 3.78153 4.07242 4.65419 5.23597 5.52685 3.19976 3.49064 4.65419 5.81774 5.81774 4.65419 4.07242 3.19976 4.36331 2.61798 4.65419 4.94508 3.78153 4.94508 3.19976 3.78153 2.90887 3.49064 2.90887 2.90887 4.36331 2.3271 2.3271 2.03621 2.3271 1.16355 0.872661 0.872661 0.872661 1.16355 1.45443 1.45443 0.581774 0.581774 0.872661 1.16355 1.16355 0.581774 1.16355 0.290887 0 0 0.581774 0.581774 0 0.581774 0 0 0 0.290887 0 0 0.290887 0.290887 0 0 0.290887 0 0.290887 0 0.290887 0 0 0 0 0 0 0 0 0 0 0 0 0 0 0 0 0 0 0 0 0 0 0 0 0 0 0 0 0 0 0 0 0 0.290887 0 0.290887 0 0 0 0 0 0 0 0 0 0 0 0 0 0 0 0 0 0 0 0 0 0 0 
      </Histogram>
    </PDF>
    <PDF Name="MLP_PDFBkg" MinNSmooth="0" MaxNSmooth="0" InterpolMethod="2" KDE_type="1" KDE_iter="1" KDE_border="1" KDE_finefactor="1.0000000000000000e+00">
      <Histogram Name="MLP_tr_B_original" NBins="228" XMin="-1.5525983572006226e+00" XMax="-1.4792184531688690e-01" HasEquidistantBins="1">
        0.0149228 0 0 0 0 0 0 0 0 0 0 0 0 0 0 0 0 0 0 0 0 0 0 0 0.0149228 0 0 0 0 0 0 0 0 0 0 0 0 0 0.0149228 0 0 0 0 0 0 0 0 0 0.0149228 0 0.0149228 0.0149228 0.0149228 0.0298455 0 0 0 0.0149228 0.0298455 0 0.0298455 0.0149228 0 0 0.0149228 0 0 0.0298455 0.0596911 0.0149228 0.0746138 0.0596911 0.0596911 0.119382 0.134305 0.149228 0.179073 0.179073 0.238764 0.223842 0.328301 0.283533 0.26861 0.477529 0.671525 0.805829 1.13413 1.13413 1.3132 1.44751 1.74596 2.23842 2.41749 2.73087 3.44716 3.671 4.46191 4.73052 4.82005 5.11851 5.5065 5.90942 5.86465 6.29741 6.70032 6.76001 6.25264 6.08849 6.44664 6.29741 5.16328 4.74544 4.3276 4.29776 3.95453 3.59639 3.11886 2.95471 2.70102 2.17872 2.0295 2.11903 1.80566 1.68627 1.3132 1.07444 1.22367 0.731216 0.641679 0.656602 0.373069 0.417838 0.417838 0.328301 0.343224 0.387992 0.238764 0.223842 0.26861 0.149228 0.16415 0.134305 0.149228 0.0746138 0.104459 0.0746138 0.0596911 0.0746138 0.0746138 0.0447683 0.0746138 0.0447683 0.0298455 0.0746138 0.0596911 0.0596911 0.0149228 0.0149228 0.0149228 0 0.0298455 0.0149228 0.0447683 0.0149228 0.0447683 0 0.0149228 0.0149228 0.0298455 0.0149228 0.0149228 0.0596911 0 0.0149228 0 0.0149228 0 0.0149228 0 0 0.0149228 0 0 0 0 0 0 0 0.0149228 0 0 0 0 0 0 0 0 0 0 0 0 0 0 0 0 0 0 0 0 0 0 0 0 0 0 0 0 0 0 0 0 0 0 0 0 0 0 0 
      </Histogram>
    </PDF>
  </MVAPdfs>
  <Weights NLayers="3">
    <Layer Index="0" NNeurons="14">
      <Neuron NSynapses="18">
        -2.2806158271686505e+00 -4.0315994014337259e-01 2.0075878751717782e+00 -1.8980326148692783e+00 -1.4198786781489434e+00 -2.6141572995317136e-01 2.2726131613929677e+00 8.3450609613209026e-01 7.3730001777215548e-01 -5.4925836566210540e-01 1.7343501643763728e+00 -9.4918655374707561e-02 -1.7262534189803356e+00 1.2530476626985092e+00 -3.1720449070225298e-01 -1.1814958486296692e+00 -4.3917504259061024e-01 -3.8650165803779979e-01 
      </Neuron>
      <Neuron NSynapses="18">
        5.2262845378240264e-01 1.7965753904484476e+00 9.6806215954428199e-01 1.5715037583508564e+00 -1.4614267008198754e+00 1.6699588191713020e+00 -1.2067760230830125e+00 3.6961000883920425e-01 6.5486763856138108e-01 -2.2166577200704758e+00 4.7664191905506903e-01 -1.1779931270491685e-01 2.0459798741135922e+00 -1.9589508106955305e+00 -1.0520061637626972e+00 2.5922534865057707e+00 -6.7266421018179134e-01 1.5133895507800021e+00 
      </Neuron>
      <Neuron NSynapses="18">
        7.1718686249521435e-01 -1.6599191055406797e+00 -3.9043663437613924e-01 -3.7344929319280828e-01 -9.9847239688906786e-01 3.1588822620104801e-01 1.7369587911325945e+00 -1.1897827990054810e+00 7.6481410978970077e-01 -7.0934998431223806e-01 6.0186016875042936e-01 1.9888322558613800e+00 8.1815377330348871e-01 -3.2743038429116539e-01 8.5097263208252016e-01 2.9230459628011225e+00 -6.6610960378268480e-01 1.8335237932427122e+00 
      </Neuron>
      <Neuron NSynapses="18">
        1.4564335521533236e+00 -7.1715288615915126e-02 1.5174691918993295e+00 1.9300971328306268e-02 -2.7992476889983808e-01 6.8773338963613939e-01 1.7143654490524116e-01 -7.4257552769955359e-01 1.1519789721476370e+00 1.7809957251283732e+00 -6.0818519460175557e-01 1.8400325030411593e+00 -3.7132482066581657e-01 3.4582943951899431e-01 9.2120574481372863e-01 1.0593147472729292e+00 6.5892199969635290e-01 -5.4608361757031654e-01 
      </Neuron>
      <Neuron NSynapses="18">
        -1.2229206421014702e+00 3.9844521722554027e-01 -2.7942974615255139e-01 -2.6365779581974391e-01 -3.3494623228033281e-02 1.5861095767323423e+00 1.8281266834497736e-01 -3.2266006127908482e-02 6.2271480624434949e-01 6.8085239083047588e-01 2.0266986204824244e-01 -2.5588173298938066e-01 3.8493633747095124e-01 2.7828322052740784e-01 9.7493219856553376e-02 -3.2268615317558935e-01 -3.0920155871958754e-01 6.0630684556007852e-01 
      </Neuron>
      <Neuron NSynapses="18">
        6.0307144938106927e-01 2.2435348051861376e-01 4.1864769756818376e-01 9.6841486667866528e-01 -4.1012746285742568e-01 1.8130026325285198e+00 2.1626781819752941e-01 -1.9527503644418316e+00 6.4322558901297300e-01 3.2615464236088038e-01 9.0913327626341878e-01 -1.6347608514595160e+00 -7.4748747780257108e-01 1.8886972206474379e+00 1.7906962061313569e+00 -3.4670101586682017e-01 -4.0363817351708731e-01 2.0904230361484819e+00 
      </Neuron>
      <Neuron NSynapses="18">
        -2.4353468970352816e+00 -1.0880786401569749e+00 -1.2896598145826106e+00 -5.7891501677570123e-01 -7.6150101330144226e-01 5.1160200400460300e-02 -9.2148519169030119e-01 -3.2792572174387491e-01 1.6055504313083300e+00 1.6564834525980912e-01 2.5393841356537034e-01 2.6590721669809042e-01 -4.8480592124288285e-01 -2.9213426743831100e-01 -5.8448181841755369e-02 -2.1169176350084276e+00 1.4213244515086199e+00 -7.4246282098376970e-01 
      </Neuron>
      <Neuron NSynapses="18">
        -1.2163375665225535e+00 3.1539608597092894e-01 -5.8565549712355813e-01 -8.7000150568555135e-01 1.5164580018662457e-01 1.6596115227446062e+00 5.9316565988320691e-02 6.8959418468387879e-01 9.3026673358787260e-01 -6.2685774252072990e-01 -1.1051046147518850e+00 1.2107327088943154e+00 -1.8286653266758369e-02 7.9361485234592932e-01 6.2101944743276494e-01 -2.2587878185807919e+00 -1.8325913541481402e+00 -3.8934621737746550e-01 
      </Neuron>
      <Neuron NSynapses="18">
        -8.1589553795745895e-01 -1.8995512372659320e+00 1.7351454583138382e+00 1.4118873008108273e+00 2.0061449152479910e-01 1.3481683611101432e+00 7.0826944223324806e-01 1.4740652589563281e+00 2.3948179148224541e-01 -1.1793403722804736e+00 1.2052227787827659e-01 -1.1044794529766069e+00 -1.1497861028885048e-01 3.3123655208573588e-01 -4.1195389608289651e-01 1.0325009222847250e+00 1.4156667825754488e+00 -1.1154887870267226e-01 
      </Neuron>
      <Neuron NSynapses="18">
        -1.6137910408243556e+00 -4.6403492914573230e-01 6.7927333276355872e-01 -7.6930246277243583e-02 -1.4094596630352407e-01 -1.3386563116205337e+00 -8.2308494299092827e-01 -1.3263541906596616e+00 5.1293574856537527e-01 1.0892984526794505e+00 -1.5183830098595252e+00 -1.1238446235291011e+00 6.6714255825416324e-01 4.7757849566625282e-01 -8.2531175130875623e-01 -5.2222810837735667e-01 -1.0269028251691545e+00 -2.0742604841693089e+00 
      </Neuron>
      <Neuron NSynapses="18">
        -1.2271863328562838e+00 -3.1352192212703064e-02 -2.8514724016528536e-01 1.9119429116932722e+00 1.0901142002092725e+00 -3.0027624542088738e-01 2.1067709973565812e-02 -4.7994809759306634e-01 4.5297889780212269e-01 -3.6877182052731189e-01 -9.1199016934365135e-02 1.5264088156817859e+00 1.1138729969415841e+00 -1.0039099454644165e-01 -4.2607982675863948e-01 -4.3681246103288568e-01 4.7887727442508111e-02 -3.4785837260184316e-01 
      </Neuron>
      <Neuron NSynapses="18">
        1.8147931428649158e-01 8.5721763454116273e-01 -1.2083880472390922e-01 -1.4679122437498746e-01 4.9958845705428329e-01 -5.7164838816588770e-01 4.8874449461732622e-01 1.6145154529329058e+00 4.5939523722387637e-01 -1.3999175934187498e+00 8.3037275376185049e-01 -2.0415331353685242e+00 -7.9906720788460395e-01 -1.6038510441652065e+00 9.2228542926718071e-01 9.1795801543659031e-02 2.3969276413521320e-01 9.5472354319689756e-01 
      </Neuron>
      <Neuron NSynapses="18">
        -1.2882050624222976e+00 -1.6255154959283853e+00 -6.1686139115923655e-01 1.3419336170477718e+00 -1.3042160896787749e+00 1.7554507300328510e+00 -6.3618624707595411e-02 5.8670294311352655e-01 1.7198273770438401e+00 -5.8530838552692976e-01 1.6188248121916125e+00 -6.5377271893229039e-01 1.4269256962171348e+00 -8.9409130776228485e-01 -1.2886658489603109e+00 -3.6131084811292580e-01 3.7368759073155655e-01 -1.2771504483515721e+00 
      </Neuron>
      <Neuron NSynapses="18">
        2.6724468517360975e+00 -2.4182375897225930e-01 3.5180832118891869e-01 1.7049665387691104e+00 -4.5810202942509920e-01 -1.7873553604804346e+00 9.3594898936375148e-01 4.7145444283112503e-01 -9.5392451509845777e-01 9.8734679866892872e-01 -1.3874531132962789e+00 4.1962064786701675e-01 -2.8698469089221451e-01 -7.5643361565431178e-01 9.5994410618251069e-01 -3.8169339181887368e-01 -1.1239887269419837e+00 1.4721916684469580e+00 
      </Neuron>
    </Layer>
    <Layer Index="1" NNeurons="19">
      <Neuron NSynapses="1">
        -1.0272695953902398e+00 
      </Neuron>
      <Neuron NSynapses="1">
        8.6998727523694988e-02 
      </Neuron>
      <Neuron NSynapses="1">
        4.5769017791345575e-02 
      </Neuron>
      <Neuron NSynapses="1">
        -4.9089391020013468e-03 
      </Neuron>
      <Neuron NSynapses="1">
        8.8195697176827015e-01 
      </Neuron>
      <Neuron NSynapses="1">
        -1.4206815871010108e+00 
      </Neuron>
      <Neuron NSynapses="1">
        -3.0373559565236485e-01 
      </Neuron>
      <Neuron NSynapses="1">
        6.8138490506979774e-03 
      </Neuron>
      <Neuron NSynapses="1">
        -4.6384613047266582e-01 
      </Neuron>
      <Neuron NSynapses="1">
        -6.4613301847912052e-01 
      </Neuron>
      <Neuron NSynapses="1">
        2.0725095938810045e+00 
      </Neuron>
      <Neuron NSynapses="1">
        8.6796963249917980e-02 
      </Neuron>
      <Neuron NSynapses="1">
        9.6637950733051661e-02 
      </Neuron>
      <Neuron NSynapses="1">
        -2.5022092270314539e-01 
      </Neuron>
      <Neuron NSynapses="1">
        -6.1848003859391439e-02 
      </Neuron>
      <Neuron NSynapses="1">
        2.4653702567412239e-01 
      </Neuron>
      <Neuron NSynapses="1">
        -2.0224443426676150e-01 
      </Neuron>
      <Neuron NSynapses="1">
        1.5572126563706212e-01 
      </Neuron>
      <Neuron NSynapses="1">
        -2.6880765667519257e-01 
      </Neuron>
    </Layer>
    <Layer Index="2" NNeurons="1">
      <Neuron NSynapses="0"/>
    </Layer>
  </Weights>
</MethodSetup>
