<?xml version="1.0"?>
<MethodSetup Method="MLP::MLP">
  <GeneralInfo>
    <Info name="TMVA Release" value="4.0.1 [262145]"/>
    <Info name="ROOT Release" value="5.24/00 [333824]"/>
    <Info name="Creator" value="twig"/>
    <Info name="Date" value="Thu Dec 10 11:15:43 2009"/>
    <Info name="Host" value="Darwin dyn1205-245.wlan.ic.ac.uk 10.0.0 Darwin Kernel Version 10.0.0: Fri Jul 31 22:47:34 PDT 2009; root:xnu-1456.1.25~1/RELEASE_I386 i386"/>
    <Info name="Dir" value="/Users/twig/gbmsci/tmva"/>
    <Info name="Training events" value="11436"/>
    <Info name="TrainingTime" value="457.006"/>
    <Info name="AnalysisType" value="Classification"/>
  </GeneralInfo>
  <Options>
    <Option name="NCycles" modified="Yes">600</Option>
    <Option name="HiddenLayers" modified="Yes">N+5</Option>
    <Option name="NeuronType" modified="Yes">tanh</Option>
    <Option name="NeuronInputType" modified="No">sum</Option>
    <Option name="V" modified="Yes">False</Option>
    <Option name="VerbosityLevel" modified="No">Default</Option>
    <Option name="VarTransform" modified="Yes">N</Option>
    <Option name="H" modified="Yes">False</Option>
    <Option name="CreateMVAPdfs" modified="Yes">True</Option>
    <Option name="IgnoreNegWeightsInTraining" modified="No">False</Option>
    <Option name="TrainingMethod" modified="No">BP</Option>
    <Option name="LearningRate" modified="No">2.000000e-02</Option>
    <Option name="DecayRate" modified="No">1.000000e-02</Option>
    <Option name="TestRate" modified="Yes">5</Option>
    <Option name="Sampling" modified="No">1.000000e+00</Option>
    <Option name="SamplingEpoch" modified="No">1.000000e+00</Option>
    <Option name="SamplingImportance" modified="No">1.000000e+00</Option>
    <Option name="SamplingTraining" modified="No">True</Option>
    <Option name="SamplingTesting" modified="No">False</Option>
    <Option name="ResetStep" modified="No">50</Option>
    <Option name="Tau" modified="No">3.000000e+00</Option>
    <Option name="BPMode" modified="No">sequential</Option>
    <Option name="BatchSize" modified="No">-1</Option>
    <Option name="ConvergenceImprove" modified="No">0.000000e+00</Option>
    <Option name="ConvergenceTests" modified="No">-1</Option>
  </Options>
  <Variables NVar="13">
    <Variable VarIndex="0" Expression="lv_met_Et" Label="lv_met_Et" Title="lv_met_Et" Unit="" Internal="lv_met_Et" Type="F" Min="0.0869568" Max="58682.1"/>
    <Variable VarIndex="1" Expression="lv_electron_Et" Label="lv_electron_Et" Title="lv_electron_Et" Unit="" Internal="lv_electron_Et" Type="F" Min="15.0001" Max="446.447"/>
    <Variable VarIndex="2" Expression="lv_tau_Et" Label="lv_tau_Et" Title="lv_tau_Et" Unit="" Internal="lv_tau_Et" Type="F" Min="20.0247" Max="897.134"/>
    <Variable VarIndex="3" Expression="dphielectau" Label="dphielectau" Title="dphielectau" Unit="" Internal="dphielectau" Type="F" Min="0.00320381" Max="3.14144"/>
    <Variable VarIndex="4" Expression="dphielecmet" Label="dphielecmet" Title="dphielecmet" Unit="" Internal="dphielecmet" Type="F" Min="3.65973e-05" Max="3.14154"/>
    <Variable VarIndex="5" Expression="mtelecmet" Label="mtelecmet" Title="mtelecmet" Unit="" Internal="mtelecmet" Type="F" Min="0.000435188" Max="3124.58"/>
    <Variable VarIndex="6" Expression="electronEcalIso" Label="electronEcalIso" Title="electronEcalIso" Unit="" Internal="electronEcalIso" Type="F" Min="0" Max="103.247"/>
    <Variable VarIndex="7" Expression="electronTrackIso" Label="electronTrackIso" Title="electronTrackIso" Unit="" Internal="electronTrackIso" Type="F" Min="0" Max="89.622"/>
    <Variable VarIndex="8" Expression="tauTrack" Label="tauTrack" Title="tauTrack" Unit="" Internal="tauTrack" Type="I" Min="0" Max="11"/>
    <Variable VarIndex="9" Expression="tauLeadTrk" Label="tauLeadTrk" Title="tauLeadTrk" Unit="" Internal="tauLeadTrk" Type="I" Min="0" Max="1"/>
    <Variable VarIndex="10" Expression="tauECALIso" Label="tauECALIso" Title="tauECALIso" Unit="" Internal="tauECALIso" Type="I" Min="0" Max="1"/>
    <Variable VarIndex="11" Expression="tauElectron" Label="tauElectron" Title="tauElectron" Unit="" Internal="tauElectron" Type="I" Min="0" Max="1"/>
    <Variable VarIndex="12" Expression="tauCharge" Label="tauCharge" Title="tauCharge" Unit="" Internal="tauCharge" Type="I" Min="-4" Max="4"/>
  </Variables>
  <Transformations NTransformations="1">
    <Transform Name="Normalize" NVariables="13" NTargets="0">
      <Class ClassIndex="0">
        <Variables>
          <Variable VarIndex="0" Min="8.6956754326820374e-02" Max="5.8682050781250000e+04"/>
          <Variable VarIndex="1" Min="1.5000106811523438e+01" Max="4.4644659423828125e+02"/>
          <Variable VarIndex="2" Min="2.0024724960327148e+01" Max="8.9713427734375000e+02"/>
          <Variable VarIndex="3" Min="3.2038069330155849e-03" Max="3.1414437294006348e+00"/>
          <Variable VarIndex="4" Min="3.6597251892089844e-05" Max="3.1415369510650635e+00"/>
          <Variable VarIndex="5" Min="4.3518829625099897e-04" Max="3.1245805664062500e+03"/>
          <Variable VarIndex="6" Min="0.0000000000000000e+00" Max="1.0324716949462891e+02"/>
          <Variable VarIndex="7" Min="0.0000000000000000e+00" Max="8.9621971130371094e+01"/>
          <Variable VarIndex="8" Min="0.0000000000000000e+00" Max="1.1000000000000000e+01"/>
          <Variable VarIndex="9" Min="0.0000000000000000e+00" Max="1.0000000000000000e+00"/>
          <Variable VarIndex="10" Min="0.0000000000000000e+00" Max="1.0000000000000000e+00"/>
          <Variable VarIndex="11" Min="0.0000000000000000e+00" Max="1.0000000000000000e+00"/>
          <Variable VarIndex="12" Min="-4.0000000000000000e+00" Max="4.0000000000000000e+00"/>
        </Variables>
        <Targets/>
      </Class>
      <Class ClassIndex="1">
        <Variables>
          <Variable VarIndex="0" Min="1.0927104949951172e+00" Max="1.9049438476562500e+02"/>
          <Variable VarIndex="1" Min="1.5039787292480469e+01" Max="1.7752145385742188e+02"/>
          <Variable VarIndex="2" Min="2.0177444458007812e+01" Max="2.5034718322753906e+02"/>
          <Variable VarIndex="3" Min="1.0493721067905426e-01" Max="3.1406891345977783e+00"/>
          <Variable VarIndex="4" Min="2.7294158935546875e-03" Max="3.1412663459777832e+00"/>
          <Variable VarIndex="5" Min="5.7646278291940689e-02" Max="1.9131974792480469e+02"/>
          <Variable VarIndex="6" Min="0.0000000000000000e+00" Max="4.1874450683593750e+01"/>
          <Variable VarIndex="7" Min="0.0000000000000000e+00" Max="2.3183576583862305e+01"/>
          <Variable VarIndex="8" Min="0.0000000000000000e+00" Max="7.0000000000000000e+00"/>
          <Variable VarIndex="9" Min="0.0000000000000000e+00" Max="1.0000000000000000e+00"/>
          <Variable VarIndex="10" Min="0.0000000000000000e+00" Max="1.0000000000000000e+00"/>
          <Variable VarIndex="11" Min="0.0000000000000000e+00" Max="1.0000000000000000e+00"/>
          <Variable VarIndex="12" Min="-2.0000000000000000e+00" Max="3.0000000000000000e+00"/>
        </Variables>
        <Targets/>
      </Class>
      <Class ClassIndex="2">
        <Variables>
          <Variable VarIndex="0" Min="8.6956754326820374e-02" Max="5.8682050781250000e+04"/>
          <Variable VarIndex="1" Min="1.5000106811523438e+01" Max="4.4644659423828125e+02"/>
          <Variable VarIndex="2" Min="2.0024724960327148e+01" Max="8.9713427734375000e+02"/>
          <Variable VarIndex="3" Min="3.2038069330155849e-03" Max="3.1414437294006348e+00"/>
          <Variable VarIndex="4" Min="3.6597251892089844e-05" Max="3.1415369510650635e+00"/>
          <Variable VarIndex="5" Min="4.3518829625099897e-04" Max="3.1245805664062500e+03"/>
          <Variable VarIndex="6" Min="0.0000000000000000e+00" Max="1.0324716949462891e+02"/>
          <Variable VarIndex="7" Min="0.0000000000000000e+00" Max="8.9621971130371094e+01"/>
          <Variable VarIndex="8" Min="0.0000000000000000e+00" Max="1.1000000000000000e+01"/>
          <Variable VarIndex="9" Min="0.0000000000000000e+00" Max="1.0000000000000000e+00"/>
          <Variable VarIndex="10" Min="0.0000000000000000e+00" Max="1.0000000000000000e+00"/>
          <Variable VarIndex="11" Min="0.0000000000000000e+00" Max="1.0000000000000000e+00"/>
          <Variable VarIndex="12" Min="-4.0000000000000000e+00" Max="4.0000000000000000e+00"/>
        </Variables>
        <Targets/>
      </Class>
    </Transform>
  </Transformations>
  <MVAPdfs>
    <PDF Name="MLP_PDFSig" MinNSmooth="0" MaxNSmooth="0" InterpolMethod="2" KDE_type="1" KDE_iter="1" KDE_border="1" KDE_finefactor="1.0000000000000000e+00">
      <Histogram Name="MLP_tr_S_original" NBins="228" XMin="-1.4030457735061646e+00" XMax="1.2115885019302368e+00" HasEquidistantBins="1">
        0 0 0 0 0 0 0 0 0 0 0 0 0 0 0 0 0 0 0 0 0 0 0 0 0 0 0 0 0 0 0 0.18243 0 0.54729 0.18243 1.09458 2.18916 1.8243 3.10131 1.64187 2.91888 3.6486 3.10131 2.55402 1.8243 2.18916 2.00673 2.73645 2.00673 1.09458 1.64187 1.64187 0.72972 1.64187 1.45944 1.09458 1.27701 1.09458 2.18916 1.45944 1.45944 0.54729 0.54729 1.27701 1.27701 0 0.912149 1.09458 0.36486 0.18243 1.09458 0.72972 0.54729 0.18243 0.54729 0.18243 1.27701 0.54729 0.36486 0.36486 0.18243 0.36486 0.36486 0.36486 0 0.18243 0.36486 0.54729 0.36486 0.72972 0.54729 0.912149 0.18243 0.36486 0 1.27701 0.54729 0.36486 0.18243 0.36486 0.36486 0.54729 0 0.18243 0.18243 0.18243 0.54729 0.18243 0.36486 0.72972 0.18243 0.18243 0.18243 0 0.54729 0.54729 0.18243 0.36486 0.18243 0.36486 0 0.36486 0.18243 0.54729 0.54729 0.18243 0.18243 0.18243 0 0.18243 0.54729 0 0.72972 0.18243 0.54729 0.18243 0.72972 0.18243 0 0 0 0 0 0 0.18243 0 0.54729 0.18243 0.18243 0.36486 0.18243 0 0 0.18243 0.18243 0 0 0 0 0 0.18243 0.36486 0 0.36486 0 0 0 0.18243 0.18243 0 0 0 0 0 0.18243 0.18243 0.18243 0 0.18243 0.18243 0 0 0 0 0 0.18243 0 0 0 0.18243 0.18243 0 0.18243 0 0 0 0 0 0 0 0 0 0 0 0 0 0 0 0 0 0 0 0 0 0 0 0 0 0 0 0 0 0 0 0 0 0 0 
      </Histogram>
    </PDF>
    <PDF Name="MLP_PDFBkg" MinNSmooth="0" MaxNSmooth="0" InterpolMethod="2" KDE_type="1" KDE_iter="1" KDE_border="1" KDE_finefactor="1.0000000000000000e+00">
      <Histogram Name="MLP_tr_B_original" NBins="228" XMin="-1.4030457735061646e+00" XMax="1.2115885019302368e+00" HasEquidistantBins="1">
        0.00795852 0 0.00795852 0.00795852 0 0 0 0 0.00795852 0.015917 0.00795852 0 0 0.00795852 0.00795852 0.015917 0.015917 0.00795852 0.0238756 0.0318341 0.0238756 0.0397926 0.0557096 0.0955022 0.0875437 0.103461 0.0875437 0.198963 0.21488 0.206921 0.286507 0.517304 0.652599 1.89413 4.21801 7.60039 8.62703 8.30869 7.25817 7.51284 5.96889 5.17304 4.26577 3.75642 2.45122 1.73496 1.65537 1.34499 1.22561 1.05052 0.931147 0.795852 0.732184 0.64464 0.636681 0.596889 0.461594 0.405884 0.366092 0.310382 0.254673 0.246714 0.254673 0.246714 0.238756 0.238756 0.191004 0.206921 0.175087 0.183046 0.119378 0.119378 0.0795852 0.127336 0.0716267 0.119378 0.0716267 0.0875437 0.103461 0.103461 0.0716267 0.0318341 0.0477511 0.0716267 0.0477511 0.0716267 0.0636681 0.0318341 0.015917 0.0636681 0.0318341 0.0397926 0.00795852 0.0636681 0.0397926 0.00795852 0.0477511 0.0397926 0.0397926 0.00795852 0.0238756 0.0238756 0.00795852 0.015917 0.00795852 0.0238756 0 0.0477511 0.00795852 0.00795852 0 0.0318341 0.015917 0 0.00795852 0 0.015917 0.015917 0.00795852 0 0 0.00795852 0 0.00795852 0.00795852 0.0238756 0.00795852 0.00795852 0 0.0238756 0.00795852 0 0.0238756 0 0 0 0.00795852 0.00795852 0.00795852 0 0 0.015917 0.00795852 0 0 0 0 0 0 0 0 0.00795852 0 0 0 0.00795852 0 0 0 0 0 0 0 0 0 0 0 0 0 0 0 0 0 0 0 0 0 0 0.00795852 0 0 0 0 0 0 0 0 0 0 0 0 0 0 0 0 0 0 0 0 0 0 0 0 0 0 0 0 0 0 0 0 0 0 0 0 0 0 0 0 0 0 0 0 0 0 0 0 0 
      </Histogram>
    </PDF>
  </MVAPdfs>
  <Weights NLayers="3">
    <Layer Index="0" NNeurons="14">
      <Neuron NSynapses="18">
        -2.1087133433876124e+00 2.7567490254529986e-01 -6.5118312669689549e-01 1.0054199836206128e+00 6.8484223062318794e-01 -1.0371717060537400e+00 2.0661454943055100e+00 -1.5136417643392563e+00 -5.8984285908312273e-01 1.2282533314648079e+00 1.7658494551607786e+00 1.8573327538457869e+00 2.1382195051635535e+00 7.7840697544858295e-01 -1.0969500663194041e+00 -9.5489465256660666e-01 1.3763510920409305e+00 -1.7012290528136194e+00 
      </Neuron>
      <Neuron NSynapses="18">
        3.9112716073957641e+00 1.9095277285888077e+00 4.0024201921963487e-01 -7.3770478978247866e-01 1.3872617055653613e+00 1.9395436594594702e+00 3.1367193509210189e-01 2.8253551194469768e+00 2.4972680752606409e+00 4.5327524903891065e+00 -7.6808657820369763e-01 4.8201177014149454e-01 -3.3223177203230947e-01 4.1311534971668701e-01 1.9828491419584109e+00 -1.2341745415013687e+00 -1.9289017345436301e+00 -2.0983156357572725e+00 
      </Neuron>
      <Neuron NSynapses="18">
        -6.0781688693623083e-02 1.3791506500079911e+00 2.4538808255525271e+00 7.3141370307992071e-01 -5.1457847539651547e-01 -1.6761748674262160e+00 7.7579365849173743e-01 -1.2030568913133997e+00 1.1934937854156213e+00 1.3102429132422022e+00 1.2038213552474029e+00 -1.4150333359553036e+00 1.8390827839799462e-01 -3.8446907744914982e-01 6.5426583527302162e-01 -1.7169512908181976e+00 -2.3015864440194798e+00 -4.7942579816755526e-01 
      </Neuron>
      <Neuron NSynapses="18">
        8.4226399777353489e-01 1.0022560074690930e-01 -8.8692150415556725e-01 -1.2491565853210280e+00 -2.2937169005161153e+00 7.2382992341711871e-01 -1.8429625309423998e+00 -6.2060016613401825e-01 -1.1812055263773245e+00 -3.8033778119776801e-01 -1.9837251385424899e+00 7.4993457254702878e-01 1.7056227719885633e+00 2.0774396568376914e+00 2.8935098642220936e-01 5.3262911151349984e-02 1.6670378365421927e+00 -8.7630334404453197e-02 
      </Neuron>
      <Neuron NSynapses="18">
        2.9534398888420960e-01 -2.1886557362936174e-01 2.2270579151301195e+00 -1.2285340493493317e+00 -5.9933051415557070e-01 -1.2626139270746526e+00 2.0807425200008685e+00 -2.4203964961461479e+00 -5.1215264277187778e-01 1.6279060473563012e-01 2.2063572107873705e-01 4.9938195169073085e-01 1.5197291847825420e+00 1.9898108475441014e+00 -6.5757275684022076e-01 -5.8093849837212774e-01 -1.7345181362858737e+00 -2.0749014802376506e+00 
      </Neuron>
      <Neuron NSynapses="18">
        -1.1382906600285712e+00 8.0495710171404100e-01 8.6730596646851665e-01 -2.1452586824582265e+00 -1.5709593976213450e+00 1.5702009667780286e+00 -4.7948842530770241e-01 1.9474351142218194e-01 6.6735279481293075e-01 -3.7347681326393872e-01 -2.2508745615641829e-01 1.2067763181019506e+00 -1.3145602478427325e+00 1.2520512764064757e+00 -9.7088095149563972e-02 1.6127658317370663e-01 -1.5602890381307932e-01 2.1017957151000677e-01 
      </Neuron>
      <Neuron NSynapses="18">
        1.4644047044933070e-01 -4.9698528894942712e-01 3.8367459913831453e-01 -2.9247221032419907e-01 -7.1406416543287554e-01 -1.7474420808932130e+00 -7.3196256979855079e-01 3.1059136319624303e-01 -2.2499595813751155e-01 2.0865313098401322e-01 1.3502703706445569e+00 1.2341811290504466e-01 2.4993956261123609e-01 -1.2093674080369136e-01 6.5839960029082378e-01 -7.8066756859440956e-01 1.1918081009868220e+00 -6.4422722399745813e-01 
      </Neuron>
      <Neuron NSynapses="18">
        1.6827095695265180e+00 1.5235571154265768e+00 -3.3953015631715078e-01 1.3185787972229097e+00 1.2571862300652368e+00 -1.0648574556478352e+00 -4.2263178857110939e-01 1.5154836267776189e-01 -4.0236069778515016e-01 -5.5099055340561531e-01 4.3441372528139988e-01 -1.3710488248494232e-01 -3.4919160566424495e-01 1.7745854349101711e+00 -1.4090734728304308e+00 1.1171898427083167e+00 -2.0222587943330692e-01 9.9888342906858973e-01 
      </Neuron>
      <Neuron NSynapses="18">
        3.3225560208384347e-01 -7.2756271470874223e-01 3.6980753289878737e-01 -1.1788572340773504e+00 -6.2108185879390942e-01 -3.8354602492055695e-01 -6.7334145506718257e-01 4.3022559690337897e-01 -6.3940407549030620e-01 -3.2083307057962323e+00 3.7379133233706824e-01 2.6325372436895000e-01 6.0423232220575607e-01 5.8136473957081802e-01 4.4924952078742995e-02 8.0954475943347939e-02 -1.1534259477638560e+00 7.3534816716329077e-01 
      </Neuron>
      <Neuron NSynapses="18">
        2.2625468995710196e-01 -7.9154525326902259e-01 -2.3371192163823307e-01 -6.2386470492455916e-02 -1.2153489195796716e+00 6.1212288849584684e-01 1.9653799036828806e-01 2.6917016167052563e+00 2.3101259569305491e-01 7.2045618093281383e-01 -4.5410898366133118e-01 1.7350371119703198e+00 -1.7234787550613767e-01 6.0194283028691442e-01 -8.5088893632653451e-01 1.2991141775224644e+00 1.9037224944039238e-01 2.4073901545810736e+00 
      </Neuron>
      <Neuron NSynapses="18">
        -1.7015230637743028e-01 -6.2007178145384678e-01 1.0484212404893745e+00 1.0923540261283360e+00 1.1766287448398698e+00 -6.4970074320988902e-01 4.1862807834647475e-01 -3.7749967731709749e-01 1.2930377594368200e-01 1.7622202538612800e-01 3.2715243240990782e-01 1.5981417298485789e+00 1.9869220315712727e-01 -8.1322191518900511e-01 5.4833134150218232e-01 -5.9080269106265471e-01 1.1461444317681113e+00 -4.9227707298032819e-01 
      </Neuron>
      <Neuron NSynapses="18">
        -2.5272918407738904e-01 -1.0734131450583055e+00 -2.1276182358440128e+00 8.3446423662720826e-01 1.9932906828161320e-01 5.1518719505566668e-01 -1.8085639451210922e+00 2.0772967866800038e+00 -1.1127242984635275e+00 -2.5189187171703185e+00 -1.8333033779136834e+00 9.8590177661032841e-02 -2.2999218240026797e-01 -1.4683762479010618e+00 -5.4915298952022351e-01 1.8182617950564415e+00 8.5487750288762410e-01 1.9828408083939055e+00 
      </Neuron>
      <Neuron NSynapses="18">
        2.2543951183571129e-01 1.1764669107334682e+00 -1.3495136093999380e+00 1.3077232383853394e+00 -4.0160396209554922e-01 1.8876325936962994e-03 -8.9078600486759585e-01 -6.1784959361729719e-01 -9.5817220235727263e-01 -3.0254491579501919e-01 9.1451248971708066e-01 -2.9239497747008103e-01 6.3629138943301766e-01 -1.0124813238973549e+00 -6.0442141142633028e-02 -1.3762692872937223e+00 -1.9837706776336010e+00 -1.0888263334154160e+00 
      </Neuron>
      <Neuron NSynapses="18">
        7.3831657018899821e-01 -8.4886007768080041e-01 4.7308414212293148e-01 1.7853736069232962e+00 2.3198741951948252e+00 -1.6027608134400138e+00 -2.2767577247019450e+00 2.3199115526363632e+00 4.5554463541444622e-02 -2.6187705014052515e-01 8.5395416795623702e-01 -1.0473766203071504e+00 1.2067252244961299e-01 2.6396025963633329e-01 4.3095603877732058e-01 2.0871611185596710e+00 1.0718590785807383e-01 -2.1203396815410800e+00 
      </Neuron>
    </Layer>
    <Layer Index="1" NNeurons="19">
      <Neuron NSynapses="1">
        2.7003438898918503e-01 
      </Neuron>
      <Neuron NSynapses="1">
        1.5464493758949112e+00 
      </Neuron>
      <Neuron NSynapses="1">
        2.4598113908222644e-01 
      </Neuron>
      <Neuron NSynapses="1">
        -4.1347106471700362e-01 
      </Neuron>
      <Neuron NSynapses="1">
        1.1859082757296853e-01 
      </Neuron>
      <Neuron NSynapses="1">
        3.6700365673842231e-02 
      </Neuron>
      <Neuron NSynapses="1">
        -4.7604600731119506e-01 
      </Neuron>
      <Neuron NSynapses="1">
        5.9695123743721845e-01 
      </Neuron>
      <Neuron NSynapses="1">
        -1.1117589279891644e+00 
      </Neuron>
      <Neuron NSynapses="1">
        8.9853563610072817e-01 
      </Neuron>
      <Neuron NSynapses="1">
        5.9264493482647362e-01 
      </Neuron>
      <Neuron NSynapses="1">
        -6.0761155281827989e-02 
      </Neuron>
      <Neuron NSynapses="1">
        2.9427194393375239e-02 
      </Neuron>
      <Neuron NSynapses="1">
        -4.3623347794986916e-01 
      </Neuron>
      <Neuron NSynapses="1">
        -9.8708929586354272e-02 
      </Neuron>
      <Neuron NSynapses="1">
        7.8254597415851368e-01 
      </Neuron>
      <Neuron NSynapses="1">
        1.4279970388034813e-01 
      </Neuron>
      <Neuron NSynapses="1">
        -5.8895182685381453e-01 
      </Neuron>
      <Neuron NSynapses="1">
        -1.0484113266004992e-01 
      </Neuron>
    </Layer>
    <Layer Index="2" NNeurons="1">
      <Neuron NSynapses="0"/>
    </Layer>
  </Weights>
</MethodSetup>
