<?xml version="1.0"?>
<MethodSetup Method="MLP::MLP">
  <GeneralInfo>
    <Info name="TMVA Release" value="4.0.1 [262145]"/>
    <Info name="ROOT Release" value="5.24/00 [333824]"/>
    <Info name="Creator" value="twig"/>
    <Info name="Date" value="Thu Dec 10 11:07:18 2009"/>
    <Info name="Host" value="Darwin dyn1205-245.wlan.ic.ac.uk 10.0.0 Darwin Kernel Version 10.0.0: Fri Jul 31 22:47:34 PDT 2009; root:xnu-1456.1.25~1/RELEASE_I386 i386"/>
    <Info name="Dir" value="/Users/twig/gbmsci/tmva"/>
    <Info name="Training events" value="11436"/>
    <Info name="TrainingTime" value="453.968"/>
    <Info name="AnalysisType" value="Classification"/>
  </GeneralInfo>
  <Options>
    <Option name="NCycles" modified="Yes">600</Option>
    <Option name="HiddenLayers" modified="Yes">N+5</Option>
    <Option name="NeuronType" modified="Yes">tanh</Option>
    <Option name="NeuronInputType" modified="No">sum</Option>
    <Option name="V" modified="Yes">False</Option>
    <Option name="VerbosityLevel" modified="No">Default</Option>
    <Option name="VarTransform" modified="Yes">N</Option>
    <Option name="H" modified="Yes">False</Option>
    <Option name="CreateMVAPdfs" modified="Yes">True</Option>
    <Option name="IgnoreNegWeightsInTraining" modified="No">False</Option>
    <Option name="TrainingMethod" modified="No">BP</Option>
    <Option name="LearningRate" modified="No">2.000000e-02</Option>
    <Option name="DecayRate" modified="No">1.000000e-02</Option>
    <Option name="TestRate" modified="Yes">5</Option>
    <Option name="Sampling" modified="No">1.000000e+00</Option>
    <Option name="SamplingEpoch" modified="No">1.000000e+00</Option>
    <Option name="SamplingImportance" modified="No">1.000000e+00</Option>
    <Option name="SamplingTraining" modified="No">True</Option>
    <Option name="SamplingTesting" modified="No">False</Option>
    <Option name="ResetStep" modified="No">50</Option>
    <Option name="Tau" modified="No">3.000000e+00</Option>
    <Option name="BPMode" modified="No">sequential</Option>
    <Option name="BatchSize" modified="No">-1</Option>
    <Option name="ConvergenceImprove" modified="No">0.000000e+00</Option>
    <Option name="ConvergenceTests" modified="No">-1</Option>
  </Options>
  <Variables NVar="13">
    <Variable VarIndex="0" Expression="lv_met_Et" Label="lv_met_Et" Title="lv_met_Et" Unit="" Internal="lv_met_Et" Type="F" Min="0.278129" Max="13037.3"/>
    <Variable VarIndex="1" Expression="lv_electron_Et" Label="lv_electron_Et" Title="lv_electron_Et" Unit="" Internal="lv_electron_Et" Type="F" Min="15.0001" Max="331.977"/>
    <Variable VarIndex="2" Expression="lv_tau_Et" Label="lv_tau_Et" Title="lv_tau_Et" Unit="" Internal="lv_tau_Et" Type="F" Min="20.0247" Max="916.371"/>
    <Variable VarIndex="3" Expression="dphielectau" Label="dphielectau" Title="dphielectau" Unit="" Internal="dphielectau" Type="F" Min="0.000231743" Max="3.14145"/>
    <Variable VarIndex="4" Expression="dphielecmet" Label="dphielecmet" Title="dphielecmet" Unit="" Internal="dphielecmet" Type="F" Min="3.19481e-05" Max="3.14157"/>
    <Variable VarIndex="5" Expression="mtelecmet" Label="mtelecmet" Title="mtelecmet" Unit="" Internal="mtelecmet" Type="F" Min="0.000971832" Max="946.81"/>
    <Variable VarIndex="6" Expression="electronEcalIso" Label="electronEcalIso" Title="electronEcalIso" Unit="" Internal="electronEcalIso" Type="F" Min="0" Max="41.4704"/>
    <Variable VarIndex="7" Expression="electronTrackIso" Label="electronTrackIso" Title="electronTrackIso" Unit="" Internal="electronTrackIso" Type="F" Min="0" Max="89.622"/>
    <Variable VarIndex="8" Expression="tauTrack" Label="tauTrack" Title="tauTrack" Unit="" Internal="tauTrack" Type="I" Min="0" Max="11"/>
    <Variable VarIndex="9" Expression="tauLeadTrk" Label="tauLeadTrk" Title="tauLeadTrk" Unit="" Internal="tauLeadTrk" Type="I" Min="0" Max="1"/>
    <Variable VarIndex="10" Expression="tauECALIso" Label="tauECALIso" Title="tauECALIso" Unit="" Internal="tauECALIso" Type="I" Min="0" Max="1"/>
    <Variable VarIndex="11" Expression="tauElectron" Label="tauElectron" Title="tauElectron" Unit="" Internal="tauElectron" Type="I" Min="0" Max="1"/>
    <Variable VarIndex="12" Expression="tauCharge" Label="tauCharge" Title="tauCharge" Unit="" Internal="tauCharge" Type="I" Min="-4" Max="5"/>
  </Variables>
  <Transformations NTransformations="1">
    <Transform Name="Normalize" NVariables="13" NTargets="0">
      <Class ClassIndex="0">
        <Variables>
          <Variable VarIndex="0" Min="2.7812945842742920e-01" Max="1.3037290039062500e+04"/>
          <Variable VarIndex="1" Min="1.5000106811523438e+01" Max="3.3197653198242188e+02"/>
          <Variable VarIndex="2" Min="2.0024724960327148e+01" Max="5.4643298339843750e+02"/>
          <Variable VarIndex="3" Min="1.1445329524576664e-02" Max="3.1414437294006348e+00"/>
          <Variable VarIndex="4" Min="2.7155876159667969e-04" Max="3.1415369510650635e+00"/>
          <Variable VarIndex="5" Min="7.0528425276279449e-03" Max="9.4681036376953125e+02"/>
          <Variable VarIndex="6" Min="0.0000000000000000e+00" Max="4.1470359802246094e+01"/>
          <Variable VarIndex="7" Min="0.0000000000000000e+00" Max="8.9621971130371094e+01"/>
          <Variable VarIndex="8" Min="0.0000000000000000e+00" Max="1.1000000000000000e+01"/>
          <Variable VarIndex="9" Min="0.0000000000000000e+00" Max="1.0000000000000000e+00"/>
          <Variable VarIndex="10" Min="0.0000000000000000e+00" Max="1.0000000000000000e+00"/>
          <Variable VarIndex="11" Min="0.0000000000000000e+00" Max="1.0000000000000000e+00"/>
          <Variable VarIndex="12" Min="-4.0000000000000000e+00" Max="4.0000000000000000e+00"/>
        </Variables>
        <Targets/>
      </Class>
      <Class ClassIndex="1">
        <Variables>
          <Variable VarIndex="0" Min="1.1001412868499756e+00" Max="4.9045556640625000e+03"/>
          <Variable VarIndex="1" Min="1.5084182739257812e+01" Max="1.9028440856933594e+02"/>
          <Variable VarIndex="2" Min="2.0028081893920898e+01" Max="9.1637115478515625e+02"/>
          <Variable VarIndex="3" Min="2.3174285888671875e-04" Max="3.1414542198181152e+00"/>
          <Variable VarIndex="4" Min="3.1948089599609375e-05" Max="3.1415660381317139e+00"/>
          <Variable VarIndex="5" Min="9.7183225443586707e-04" Max="8.3325140380859375e+02"/>
          <Variable VarIndex="6" Min="0.0000000000000000e+00" Max="3.1465206146240234e+01"/>
          <Variable VarIndex="7" Min="0.0000000000000000e+00" Max="8.0985572814941406e+01"/>
          <Variable VarIndex="8" Min="0.0000000000000000e+00" Max="9.0000000000000000e+00"/>
          <Variable VarIndex="9" Min="0.0000000000000000e+00" Max="1.0000000000000000e+00"/>
          <Variable VarIndex="10" Min="0.0000000000000000e+00" Max="1.0000000000000000e+00"/>
          <Variable VarIndex="11" Min="0.0000000000000000e+00" Max="1.0000000000000000e+00"/>
          <Variable VarIndex="12" Min="-4.0000000000000000e+00" Max="5.0000000000000000e+00"/>
        </Variables>
        <Targets/>
      </Class>
      <Class ClassIndex="2">
        <Variables>
          <Variable VarIndex="0" Min="2.7812945842742920e-01" Max="1.3037290039062500e+04"/>
          <Variable VarIndex="1" Min="1.5000106811523438e+01" Max="3.3197653198242188e+02"/>
          <Variable VarIndex="2" Min="2.0024724960327148e+01" Max="9.1637115478515625e+02"/>
          <Variable VarIndex="3" Min="2.3174285888671875e-04" Max="3.1414542198181152e+00"/>
          <Variable VarIndex="4" Min="3.1948089599609375e-05" Max="3.1415660381317139e+00"/>
          <Variable VarIndex="5" Min="9.7183225443586707e-04" Max="9.4681036376953125e+02"/>
          <Variable VarIndex="6" Min="0.0000000000000000e+00" Max="4.1470359802246094e+01"/>
          <Variable VarIndex="7" Min="0.0000000000000000e+00" Max="8.9621971130371094e+01"/>
          <Variable VarIndex="8" Min="0.0000000000000000e+00" Max="1.1000000000000000e+01"/>
          <Variable VarIndex="9" Min="0.0000000000000000e+00" Max="1.0000000000000000e+00"/>
          <Variable VarIndex="10" Min="0.0000000000000000e+00" Max="1.0000000000000000e+00"/>
          <Variable VarIndex="11" Min="0.0000000000000000e+00" Max="1.0000000000000000e+00"/>
          <Variable VarIndex="12" Min="-4.0000000000000000e+00" Max="5.0000000000000000e+00"/>
        </Variables>
        <Targets/>
      </Class>
    </Transform>
  </Transformations>
  <MVAPdfs>
    <PDF Name="MLP_PDFSig" MinNSmooth="0" MaxNSmooth="0" InterpolMethod="2" KDE_type="1" KDE_iter="1" KDE_border="1" KDE_finefactor="1.0000000000000000e+00">
      <Histogram Name="MLP_tr_S_original" NBins="228" XMin="-1.8777958154678345e+00" XMax="2.4917206764221191e+00" HasEquidistantBins="1">
        0 0 0 0 0 0 0 0 0 0 0 0 0 0 0 0 0 0 0 0 0 0 0 0 0 0 0 0 0 0 0 0 0 0 0.00936967 0 0 0 0 0 0.0187393 0.00936967 0.00936967 0.0374787 0.0187393 0.028109 0.0374787 0.0374787 0.0468483 0.028109 0.0655877 0.0655877 0.056218 0.0655877 0.0749573 0.103066 0.131175 0.103066 0.159284 0.056218 0.159284 0.121806 0.159284 0.121806 0.121806 0.103066 0.140545 0.121806 0.121806 0.140545 0.056218 0.159284 0.187393 0.056218 0.168654 0.131175 0.159284 0.140545 0.121806 0.131175 0.206133 0.131175 0.178024 0.159284 0.178024 0.0655877 0.121806 0.149915 0.149915 0.243611 0.196763 0.112436 0.224872 0.206133 0.140545 0.196763 0.196763 0.168654 0.196763 0.178024 0.168654 0.178024 0.309199 0.346678 0.243611 0.337308 0.234242 0.215502 0.234242 0.327938 0.327938 0.327938 0.318569 0.337308 0.309199 0.365417 0.337308 0.346678 0.477853 0.496592 0.496592 0.431005 0.534071 0.56218 0.440374 0.665246 0.665246 0.768313 0.740204 0.56218 0.880749 1.04003 0.84327 1.09625 1.18995 1.32112 1.21806 1.29301 1.43356 1.78961 1.90204 1.75213 1.63969 1.89267 1.6678 1.59284 1.51789 1.19932 1.43356 1.33049 0.927597 0.815161 0.646507 0.477853 0.468483 0.299829 0.196763 0.112436 0.159284 0.121806 0.112436 0.0936967 0.056218 0.0374787 0.056218 0.0749573 0.056218 0.028109 0.028109 0.0187393 0.00936967 0.00936967 0.0187393 0 0 0.00936967 0 0 0 0 0 0.00936967 0 0 0.00936967 0 0 0 0 0 0 0 0 0 0 0 0 0 0 0 0 0 0 0 0 0 0 0 0 0 0 0 0 0 0 0 0 0 0 0 0 0 0 0 0 0 0 0 
      </Histogram>
    </PDF>
    <PDF Name="MLP_PDFBkg" MinNSmooth="0" MaxNSmooth="0" InterpolMethod="2" KDE_type="1" KDE_iter="1" KDE_border="1" KDE_finefactor="1.0000000000000000e+00">
      <Histogram Name="MLP_tr_B_original" NBins="228" XMin="-1.8777958154678345e+00" XMax="2.4917206764221191e+00" HasEquidistantBins="1">
        0.00889528 0.00889528 0 0 0 0 0 0 0 0 0 0 0 0 0 0.00889528 0 0 0.00889528 0.0266858 0.00889528 0.00889528 0.0266858 0 0.00889528 0.0177906 0.0355811 0.0444764 0.0177906 0.0355811 0.0889528 0.0355811 0.115639 0.0622669 0.106743 0.097848 0.240172 0.186801 0.240172 0.249068 0.33802 0.498135 0.720517 1.00517 1.14749 1.3254 1.43214 1.53888 1.65452 1.75237 1.73458 1.45883 1.39656 1.52999 1.36098 1.3254 1.37877 1.20086 1.35208 1.17418 1.02296 0.880632 0.80947 0.773889 0.702727 0.764994 0.818365 0.667146 0.720517 0.578193 0.47145 0.480345 0.542612 0.373602 0.444764 0.542612 0.409183 0.480345 0.400287 0.355811 0.33802 0.302439 0.400287 0.373602 0.249068 0.249068 0.329125 0.329125 0.275754 0.222382 0.177906 0.302439 0.231277 0.249068 0.195696 0.231277 0.195696 0.195696 0.16901 0.195696 0.160115 0.186801 0.204591 0.231277 0.213487 0.204591 0.15122 0.124534 0.115639 0.16901 0.204591 0.195696 0.177906 0.177906 0.160115 0.115639 0.115639 0.195696 0.133429 0.195696 0.204591 0.249068 0.115639 0.204591 0.142324 0.124534 0.133429 0.142324 0.231277 0.240172 0.133429 0.186801 0.0889528 0.115639 0.124534 0.0800575 0.142324 0.124534 0.106743 0.177906 0.186801 0.097848 0.133429 0.106743 0.0800575 0.0800575 0.106743 0.0711622 0.0444764 0.0533717 0.0355811 0.0266858 0.00889528 0.0355811 0.0266858 0 0.00889528 0 0.00889528 0.00889528 0.0177906 0.00889528 0.00889528 0.0177906 0.00889528 0 0 0 0 0 0 0 0 0 0.0177906 0 0 0 0 0 0 0 0 0 0 0 0 0 0 0 0 0 0.00889528 0 0 0 0 0 0 0 0 0 0 0 0 0 0 0 0 0 0 0 0 0 0 0 0 0 0 0 0 0 0 0 0 0 0 0 
      </Histogram>
    </PDF>
  </MVAPdfs>
  <Weights NLayers="3">
    <Layer Index="0" NNeurons="14">
      <Neuron NSynapses="18">
        7.6283245558431201e-01 -7.8997447814884714e-01 9.7869114348132935e-01 5.4574691472135750e-01 6.1818309002913807e-01 2.3090502883922457e+00 4.4350760415318141e-01 -6.9376041011603984e-01 -1.3968739497709237e+00 -2.2656586703143042e+00 2.9405859577312454e+00 -3.6728658722054792e+00 4.0681582920887444e-01 9.0346241296344765e-01 -1.7330047705218534e+00 -6.0071201353469417e-01 1.6366794252614736e+00 4.8240766551039493e-01 
      </Neuron>
      <Neuron NSynapses="18">
        -9.6868804048119916e-01 -1.2023006723206888e+00 -3.3928593720017202e+00 -2.9905613958639798e-01 6.2234221811564916e-01 -5.2607528033335371e-01 3.2508903742878807e+00 -1.0215508488263443e+00 7.2880816173229390e-01 -1.2059566947124662e+00 -4.4053030409329672e+00 9.4473530649719628e-01 4.2738634156636071e+00 8.2967389879035958e-02 2.8423547000578000e+00 5.4042797908315143e-01 -4.5183526350201741e-01 -1.5986590642555873e+00 
      </Neuron>
      <Neuron NSynapses="18">
        -1.1933666119662591e+00 2.1530611806108646e+00 -1.7357402374799027e-01 1.0443556469806574e+00 2.5136928317069318e-01 -2.0309858009978328e+00 -4.1407704292017886e-02 2.3425321233364671e+00 -4.6659619116776968e-01 1.8140704536071393e+00 -6.1322675599810028e-01 -3.7698162308735927e+00 -6.2328288423602041e-01 -5.3934415244157230e-01 -2.7149829282402504e+00 -5.9199360948261970e-01 -6.4237089684872650e-01 -4.6817644267874592e-01 
      </Neuron>
      <Neuron NSynapses="18">
        3.4763751701726107e-03 1.0584987110110891e+00 -1.1730598180778085e+00 2.0820342741767212e-01 -1.1965882058566861e-01 1.3559151919446060e+00 -2.6895980647634303e+00 3.6251700515024382e-01 4.2210779689721062e-01 -9.4740817961315882e-01 -2.9719815373581961e+00 -5.4907399971590720e-01 4.8607700142520133e-01 -2.6120095334132357e-02 -2.6376423041075459e+00 -3.7925601795565089e-02 -2.9183926833341367e+00 -2.0567446194221533e+00 
      </Neuron>
      <Neuron NSynapses="18">
        5.0583269059486229e-02 3.7561728199243055e-02 1.1354572857531275e+00 6.4993496470281364e-01 9.4015435650752921e-01 -7.1287268809112792e-01 4.2630929183623406e-01 1.1748199337269571e+00 3.4102229949176238e-01 -2.6369296561165750e-01 1.2480665234239681e+00 -4.4849615642946472e-01 -2.7141245146954796e-01 -1.1095713031569305e+00 -1.1981398742825666e+00 -1.5981596007084994e-01 -2.7743516935274881e+00 -3.6924948898995722e+00 
      </Neuron>
      <Neuron NSynapses="18">
        1.1284805005779131e-02 -2.0015492646080304e+00 -1.2903636920711266e+00 -5.8842376000584162e-01 1.6789564001953490e+00 -2.3657909891364914e+00 -2.6348348450332053e+00 -4.5946349956517629e-01 -9.6611189346316084e-01 1.6183346104271286e+00 -2.7665790089079398e+00 1.5101441603970725e+01 -3.1992030596558112e+00 1.2196213907729470e+00 7.6126305307789028e+00 -5.3319658129284253e-01 -2.6021653383254879e+00 -1.4866514619746045e+00 
      </Neuron>
      <Neuron NSynapses="18">
        1.7163574018800121e-01 -1.3539182552697682e+00 2.0858067727155847e+00 -9.1021176410750115e-01 -1.1250090965676407e+00 1.1979278100721771e+00 -1.2992174520756992e+00 -2.0103653495123927e-02 1.5177514899287781e+00 -8.6901819913980483e-01 -1.4534140148852961e+00 -2.4559885933661409e-02 -6.0808963919618730e-01 6.6824298547045846e-01 -4.3137568323164521e-01 8.3316552948405243e-01 1.3289406977026932e+00 -1.2143830002582715e-01 
      </Neuron>
      <Neuron NSynapses="18">
        7.1984749181968055e-01 2.4026389745856114e+00 7.3029571192359766e-01 -1.6838888792965301e+00 7.4639100543453196e-01 -1.5166083273251740e-01 -6.2082081334574635e-01 1.4312812546537155e+00 -1.0354986485908249e+00 -2.0108026980631105e-01 -3.4552452759326835e-01 -2.4660941621586479e+00 -1.5772010906349367e+00 1.0093854031677034e+00 -2.1768249392405408e+00 -1.6377646055884973e+00 -1.3679013904214801e+00 1.3847816432389253e+00 
      </Neuron>
      <Neuron NSynapses="18">
        1.0724629481304184e+00 8.0114864058899216e-01 1.0884060109796589e+00 1.3195078537931584e+00 -1.1585112183774646e+00 -1.3431133679392377e+00 8.8053822948626459e-01 1.2326142832054465e+00 2.7345324926344283e-01 1.8781328506075938e+00 1.6659921573709785e-01 3.4320211456671462e-01 2.0233138651600732e-01 1.6796150498721904e-01 2.0850980922041826e-01 4.6168779779812857e-01 8.1929795317761034e-01 -4.3409070796882626e-01 
      </Neuron>
      <Neuron NSynapses="18">
        -4.0986121171859249e-02 -2.5119012183111944e-01 4.7322951028489540e-01 8.3926388709783051e-01 -1.7778877183862745e+00 3.5220134656835517e-01 -4.2173652164525788e-01 2.0050117328008682e-02 -2.5356847162785654e-03 -4.7804352575223655e-02 -1.7407593502491361e-01 -1.0860272347044679e-01 -1.9111189789996544e-01 -3.7483830142927707e-02 -1.6101558087886636e-01 -4.5152513037478692e-02 -6.8346043298262715e-01 2.8643482064335102e-01 
      </Neuron>
      <Neuron NSynapses="18">
        1.3126346773150487e-02 -1.1483256132966521e-01 -9.7372784709325610e-01 -1.1599142874039005e-01 -2.3690997101378786e+00 -1.6816278424303117e+00 -3.3773817434183384e-01 6.1500238852738864e-01 -1.6774804315759614e-01 -1.0335862750389899e-02 -1.6351322261743287e-01 -1.1632465917660022e-01 -1.8636306645393444e-01 1.3428441185946460e+00 -2.9463369771588926e-01 -1.6061862384774538e-02 -2.2376089817022235e-01 1.6430717985454177e-01 
      </Neuron>
      <Neuron NSynapses="18">
        -6.3082917042560666e-02 3.1006241721423122e-01 2.9068683057349715e-01 -9.1644712942024598e-01 1.1737131332404906e+00 -7.7572509048882510e-01 3.7779256246311588e-01 -1.2952708209631951e+00 1.9193416664208043e-01 2.6989994984700438e-01 -4.7582598768393568e-02 9.7653427413348884e-02 5.2444605493593588e-01 -9.1028556440174013e-01 2.6387984036699279e-02 -1.0327904667904868e-01 3.8779485692209975e-01 -5.5819927713577126e-02 
      </Neuron>
      <Neuron NSynapses="18">
        2.0996558911010516e-01 3.6775924630965136e-02 -6.6297398734066648e-01 -9.9315977102466502e-01 -6.4867935829816337e-01 -6.2580763085534030e-01 -3.5444102457254106e-01 1.3314964050864286e-01 -5.1040984310329766e-02 -5.4384810397725847e-01 8.8732971351733123e-02 2.1164243801367139e-01 2.1562631093838849e-01 -1.5324758890923666e+00 -1.5442127212747431e-01 2.0891765902148415e-01 -3.9446551125910567e-01 1.5061085917908195e+00 
      </Neuron>
      <Neuron NSynapses="18">
        4.5639933946271644e-01 -3.1706285319239635e-01 1.0659465902935397e-01 -1.7365610797931652e+00 4.3454610218457240e-01 -1.7594278992896479e+00 3.1962930832664471e-01 -1.8882962203826721e+00 -1.9478417334302738e+00 1.4049240822408720e+00 -2.3649405873608473e+00 5.5059212452446857e+00 -1.4599908101829853e+00 -1.6574626687520677e+00 5.5124073546588948e+00 -9.2931958400977699e-01 -5.2823688381925382e-01 -1.3519039529145465e+00 
      </Neuron>
    </Layer>
    <Layer Index="1" NNeurons="19">
      <Neuron NSynapses="1">
        -1.5074219746912101e-01 
      </Neuron>
      <Neuron NSynapses="1">
        3.5301655657953757e-01 
      </Neuron>
      <Neuron NSynapses="1">
        2.3544722967732318e-01 
      </Neuron>
      <Neuron NSynapses="1">
        -1.4173572694943923e-01 
      </Neuron>
      <Neuron NSynapses="1">
        1.7467971604180690e-01 
      </Neuron>
      <Neuron NSynapses="1">
        -2.1068640055703122e-01 
      </Neuron>
      <Neuron NSynapses="1">
        -2.9515899764835279e-01 
      </Neuron>
      <Neuron NSynapses="1">
        1.5469982129950304e+00 
      </Neuron>
      <Neuron NSynapses="1">
        -1.5925324020291603e-02 
      </Neuron>
      <Neuron NSynapses="1">
        2.2414182749900330e-01 
      </Neuron>
      <Neuron NSynapses="1">
        -4.5011843545126407e-01 
      </Neuron>
      <Neuron NSynapses="1">
        7.6261254110331511e-01 
      </Neuron>
      <Neuron NSynapses="1">
        -6.0167297159830835e-01 
      </Neuron>
      <Neuron NSynapses="1">
        -6.0542384685725537e-01 
      </Neuron>
      <Neuron NSynapses="1">
        4.5901328810481840e-01 
      </Neuron>
      <Neuron NSynapses="1">
        3.6866856559873451e-01 
      </Neuron>
      <Neuron NSynapses="1">
        -1.8947623121137031e-01 
      </Neuron>
      <Neuron NSynapses="1">
        -2.2427841865211107e-01 
      </Neuron>
      <Neuron NSynapses="1">
        4.6814208863778367e-01 
      </Neuron>
    </Layer>
    <Layer Index="2" NNeurons="1">
      <Neuron NSynapses="0"/>
    </Layer>
  </Weights>
</MethodSetup>
