<?xml version="1.0"?>
<MethodSetup Method="MLP::MLP">
  <GeneralInfo>
    <Info name="TMVA Release" value="4.0.1 [262145]"/>
    <Info name="ROOT Release" value="5.24/00 [333824]"/>
    <Info name="Creator" value="twig"/>
    <Info name="Date" value="Thu Dec 10 11:21:43 2009"/>
    <Info name="Host" value="Darwin dyn1205-245.wlan.ic.ac.uk 10.0.0 Darwin Kernel Version 10.0.0: Fri Jul 31 22:47:34 PDT 2009; root:xnu-1456.1.25~1/RELEASE_I386 i386"/>
    <Info name="Dir" value="/Users/twig/gbmsci/tmva"/>
    <Info name="Training events" value="11436"/>
    <Info name="TrainingTime" value="336.579"/>
    <Info name="AnalysisType" value="Classification"/>
  </GeneralInfo>
  <Options>
    <Option name="NCycles" modified="Yes">600</Option>
    <Option name="HiddenLayers" modified="Yes">N+5</Option>
    <Option name="NeuronType" modified="Yes">tanh</Option>
    <Option name="NeuronInputType" modified="No">sum</Option>
    <Option name="V" modified="Yes">False</Option>
    <Option name="VerbosityLevel" modified="No">Default</Option>
    <Option name="VarTransform" modified="Yes">N</Option>
    <Option name="H" modified="Yes">False</Option>
    <Option name="CreateMVAPdfs" modified="Yes">True</Option>
    <Option name="IgnoreNegWeightsInTraining" modified="No">False</Option>
    <Option name="TrainingMethod" modified="No">BP</Option>
    <Option name="LearningRate" modified="No">2.000000e-02</Option>
    <Option name="DecayRate" modified="No">1.000000e-02</Option>
    <Option name="TestRate" modified="Yes">5</Option>
    <Option name="Sampling" modified="No">1.000000e+00</Option>
    <Option name="SamplingEpoch" modified="No">1.000000e+00</Option>
    <Option name="SamplingImportance" modified="No">1.000000e+00</Option>
    <Option name="SamplingTraining" modified="No">True</Option>
    <Option name="SamplingTesting" modified="No">False</Option>
    <Option name="ResetStep" modified="No">50</Option>
    <Option name="Tau" modified="No">3.000000e+00</Option>
    <Option name="BPMode" modified="No">sequential</Option>
    <Option name="BatchSize" modified="No">-1</Option>
    <Option name="ConvergenceImprove" modified="No">0.000000e+00</Option>
    <Option name="ConvergenceTests" modified="No">-1</Option>
  </Options>
  <Variables NVar="13">
    <Variable VarIndex="0" Expression="lv_met_Et" Label="lv_met_Et" Title="lv_met_Et" Unit="" Internal="lv_met_Et" Type="F" Min="0.0869568" Max="58682.1"/>
    <Variable VarIndex="1" Expression="lv_electron_Et" Label="lv_electron_Et" Title="lv_electron_Et" Unit="" Internal="lv_electron_Et" Type="F" Min="15.0001" Max="446.447"/>
    <Variable VarIndex="2" Expression="lv_tau_Et" Label="lv_tau_Et" Title="lv_tau_Et" Unit="" Internal="lv_tau_Et" Type="F" Min="20.0247" Max="923.271"/>
    <Variable VarIndex="3" Expression="dphielectau" Label="dphielectau" Title="dphielectau" Unit="" Internal="dphielectau" Type="F" Min="0.00320381" Max="3.14153"/>
    <Variable VarIndex="4" Expression="dphielecmet" Label="dphielecmet" Title="dphielecmet" Unit="" Internal="dphielecmet" Type="F" Min="3.65973e-05" Max="3.14154"/>
    <Variable VarIndex="5" Expression="mtelecmet" Label="mtelecmet" Title="mtelecmet" Unit="" Internal="mtelecmet" Type="F" Min="0.000435188" Max="3124.58"/>
    <Variable VarIndex="6" Expression="electronEcalIso" Label="electronEcalIso" Title="electronEcalIso" Unit="" Internal="electronEcalIso" Type="F" Min="0" Max="103.247"/>
    <Variable VarIndex="7" Expression="electronTrackIso" Label="electronTrackIso" Title="electronTrackIso" Unit="" Internal="electronTrackIso" Type="F" Min="0" Max="89.622"/>
    <Variable VarIndex="8" Expression="tauTrack" Label="tauTrack" Title="tauTrack" Unit="" Internal="tauTrack" Type="I" Min="0" Max="11"/>
    <Variable VarIndex="9" Expression="tauLeadTrk" Label="tauLeadTrk" Title="tauLeadTrk" Unit="" Internal="tauLeadTrk" Type="I" Min="0" Max="1"/>
    <Variable VarIndex="10" Expression="tauECALIso" Label="tauECALIso" Title="tauECALIso" Unit="" Internal="tauECALIso" Type="I" Min="0" Max="1"/>
    <Variable VarIndex="11" Expression="tauElectron" Label="tauElectron" Title="tauElectron" Unit="" Internal="tauElectron" Type="I" Min="0" Max="1"/>
    <Variable VarIndex="12" Expression="tauCharge" Label="tauCharge" Title="tauCharge" Unit="" Internal="tauCharge" Type="I" Min="-4" Max="4"/>
  </Variables>
  <Transformations NTransformations="1">
    <Transform Name="Normalize" NVariables="13" NTargets="0">
      <Class ClassIndex="0">
        <Variables>
          <Variable VarIndex="0" Min="8.6956754326820374e-02" Max="5.8682050781250000e+04"/>
          <Variable VarIndex="1" Min="1.5000106811523438e+01" Max="4.4644659423828125e+02"/>
          <Variable VarIndex="2" Min="2.0024724960327148e+01" Max="8.9713427734375000e+02"/>
          <Variable VarIndex="3" Min="3.2038069330155849e-03" Max="3.1414437294006348e+00"/>
          <Variable VarIndex="4" Min="3.6597251892089844e-05" Max="3.1415369510650635e+00"/>
          <Variable VarIndex="5" Min="4.3518829625099897e-04" Max="3.1245805664062500e+03"/>
          <Variable VarIndex="6" Min="0.0000000000000000e+00" Max="1.0324716949462891e+02"/>
          <Variable VarIndex="7" Min="0.0000000000000000e+00" Max="8.9621971130371094e+01"/>
          <Variable VarIndex="8" Min="0.0000000000000000e+00" Max="1.1000000000000000e+01"/>
          <Variable VarIndex="9" Min="0.0000000000000000e+00" Max="1.0000000000000000e+00"/>
          <Variable VarIndex="10" Min="0.0000000000000000e+00" Max="1.0000000000000000e+00"/>
          <Variable VarIndex="11" Min="0.0000000000000000e+00" Max="1.0000000000000000e+00"/>
          <Variable VarIndex="12" Min="-4.0000000000000000e+00" Max="4.0000000000000000e+00"/>
        </Variables>
        <Targets/>
      </Class>
      <Class ClassIndex="1">
        <Variables>
          <Variable VarIndex="0" Min="2.1746447682380676e-01" Max="3.7817263793945312e+02"/>
          <Variable VarIndex="1" Min="1.5199849128723145e+01" Max="1.3501396179199219e+02"/>
          <Variable VarIndex="2" Min="2.0084617614746094e+01" Max="9.2327105712890625e+02"/>
          <Variable VarIndex="3" Min="1.1022668331861496e-02" Max="3.1415259838104248e+00"/>
          <Variable VarIndex="4" Min="8.2433223724365234e-05" Max="3.1385142803192139e+00"/>
          <Variable VarIndex="5" Min="1.4971885830163956e-03" Max="1.6114823913574219e+02"/>
          <Variable VarIndex="6" Min="0.0000000000000000e+00" Max="2.4656005859375000e+01"/>
          <Variable VarIndex="7" Min="0.0000000000000000e+00" Max="3.6737342834472656e+01"/>
          <Variable VarIndex="8" Min="0.0000000000000000e+00" Max="5.0000000000000000e+00"/>
          <Variable VarIndex="9" Min="0.0000000000000000e+00" Max="1.0000000000000000e+00"/>
          <Variable VarIndex="10" Min="0.0000000000000000e+00" Max="1.0000000000000000e+00"/>
          <Variable VarIndex="11" Min="0.0000000000000000e+00" Max="1.0000000000000000e+00"/>
          <Variable VarIndex="12" Min="-4.0000000000000000e+00" Max="4.0000000000000000e+00"/>
        </Variables>
        <Targets/>
      </Class>
      <Class ClassIndex="2">
        <Variables>
          <Variable VarIndex="0" Min="8.6956754326820374e-02" Max="5.8682050781250000e+04"/>
          <Variable VarIndex="1" Min="1.5000106811523438e+01" Max="4.4644659423828125e+02"/>
          <Variable VarIndex="2" Min="2.0024724960327148e+01" Max="9.2327105712890625e+02"/>
          <Variable VarIndex="3" Min="3.2038069330155849e-03" Max="3.1415259838104248e+00"/>
          <Variable VarIndex="4" Min="3.6597251892089844e-05" Max="3.1415369510650635e+00"/>
          <Variable VarIndex="5" Min="4.3518829625099897e-04" Max="3.1245805664062500e+03"/>
          <Variable VarIndex="6" Min="0.0000000000000000e+00" Max="1.0324716949462891e+02"/>
          <Variable VarIndex="7" Min="0.0000000000000000e+00" Max="8.9621971130371094e+01"/>
          <Variable VarIndex="8" Min="0.0000000000000000e+00" Max="1.1000000000000000e+01"/>
          <Variable VarIndex="9" Min="0.0000000000000000e+00" Max="1.0000000000000000e+00"/>
          <Variable VarIndex="10" Min="0.0000000000000000e+00" Max="1.0000000000000000e+00"/>
          <Variable VarIndex="11" Min="0.0000000000000000e+00" Max="1.0000000000000000e+00"/>
          <Variable VarIndex="12" Min="-4.0000000000000000e+00" Max="4.0000000000000000e+00"/>
        </Variables>
        <Targets/>
      </Class>
    </Transform>
  </Transformations>
  <MVAPdfs>
    <PDF Name="MLP_PDFSig" MinNSmooth="0" MaxNSmooth="0" InterpolMethod="2" KDE_type="1" KDE_iter="1" KDE_border="1" KDE_finefactor="1.0000000000000000e+00">
      <Histogram Name="MLP_tr_S_original" NBins="228" XMin="-1.7396390438079834e+00" XMax="1.0030431747436523e+00" HasEquidistantBins="1">
        0 0 0 0 0 0 0 0 0 0 0 0 0 0 0 0 0 0 0 0 0 0 0 0 0 0 0 0 0 0 0 0 0 0 0 0 0 0 0 0 0 0 0 0 0 0 0 0 0 0.105898 0 0 0 0 0 0.105898 0 0 0.211797 0.211797 0.105898 0.211797 0.635391 0.529492 1.69438 2.22387 2.32977 2.54156 2.22387 2.32977 2.75336 2.75336 1.58848 2.75336 2.11797 2.11797 2.11797 1.58848 1.80027 0.847188 0.847188 1.69438 1.37668 1.80027 1.37668 1.05898 0.317695 0.953086 0.529492 1.16488 0.317695 0.847188 0.635391 0.529492 0.741289 0.741289 0.529492 0.635391 1.27078 0.423594 0.423594 0.741289 0.847188 0.423594 0.741289 0.635391 0.211797 0.741289 0.423594 0.847188 0 0.529492 0.529492 0.211797 0.529492 0.529492 0.529492 0.317695 0.423594 0.211797 0.211797 0.741289 0.635391 0.105898 0.529492 0.529492 0.105898 0.423594 0.317695 0.423594 0.211797 0.211797 0.635391 0.529492 0.529492 0.529492 0.105898 0.635391 0.211797 0.635391 0.423594 0.317695 0.423594 0.211797 0.529492 0.317695 0.211797 0.211797 0.105898 0.105898 0.423594 0.635391 0.211797 0.423594 0.317695 0.423594 0 0.529492 0.423594 0.105898 0.529492 0.741289 0.317695 0.211797 0.423594 0.317695 0.211797 0.105898 0.211797 0.105898 0 0.211797 0.105898 0.105898 0 0.105898 0 0.105898 0.211797 0.211797 0 0 0.105898 0 0 0.105898 0.211797 0 0 0 0 0.105898 0 0 0 0 0.105898 0 0 0 0 0.105898 0 0 0 0 0 0 0 0 0 0 0 0 0 0 0 0 0 0 0 0 0 0 0 0 0 0 
      </Histogram>
    </PDF>
    <PDF Name="MLP_PDFBkg" MinNSmooth="0" MaxNSmooth="0" InterpolMethod="2" KDE_type="1" KDE_iter="1" KDE_border="1" KDE_finefactor="1.0000000000000000e+00">
      <Histogram Name="MLP_tr_B_original" NBins="228" XMin="-1.7396390438079834e+00" XMax="1.0030431747436523e+00" HasEquidistantBins="1">
        0.00780566 0 0 0 0 0 0 0 0 0 0 0 0 0 0 0 0 0 0.00780566 0 0.00780566 0 0 0 0 0 0 0 0 0 0.00780566 0.00780566 0.00780566 0 0.0156113 0 0 0.0156113 0.0156113 0 0.0156113 0.0390283 0.023417 0.0156113 0.0312226 0.070251 0.0156113 0.023417 0.0390283 0.046834 0.046834 0.070251 0.0624453 0.0858623 0.132696 0.101474 0.218559 0.187336 0.195142 0.320032 0.632259 1.7875 1.87336 3.06763 8.92187 9.921 7.87591 6.13525 4.62095 4.18384 3.23154 3.07543 2.8959 2.30267 2.05289 1.95922 1.80311 1.27232 1.28793 0.983513 0.843011 0.749344 0.671287 0.577619 0.483951 0.460534 0.507368 0.491757 0.429311 0.405894 0.312226 0.249781 0.320032 0.343449 0.257587 0.210753 0.226364 0.202947 0.156113 0.124891 0.163919 0.132696 0.156113 0.148308 0.17953 0.163919 0.0936679 0.101474 0.140502 0.0858623 0.0780566 0.0936679 0.0858623 0.0546396 0.0546396 0.0936679 0.070251 0.046834 0.109279 0.070251 0.070251 0.070251 0.0624453 0.023417 0.046834 0.0312226 0.046834 0.046834 0.0390283 0.0546396 0.023417 0.046834 0.023417 0.0390283 0.023417 0.023417 0.00780566 0.0390283 0.00780566 0.023417 0.046834 0.0156113 0.0312226 0.0156113 0.0390283 0.023417 0.0390283 0.00780566 0 0.00780566 0.0156113 0.00780566 0.023417 0.00780566 0.023417 0.023417 0.00780566 0.0156113 0 0 0.0156113 0.00780566 0.0156113 0.0156113 0.00780566 0 0.00780566 0 0 0 0 0 0.0156113 0.0156113 0 0 0.0156113 0 0 0.0156113 0 0.0156113 0 0 0 0 0 0.0156113 0 0 0 0 0 0 0 0 0 0 0 0 0 0 0 0 0 0 0 0 0 0 0 0 0 0 0 0 0 0 0 0 0 0 0 0 0 0 0 0 
      </Histogram>
    </PDF>
  </MVAPdfs>
  <Weights NLayers="3">
    <Layer Index="0" NNeurons="14">
      <Neuron NSynapses="18">
        5.3339434081654524e-01 -1.9878115894951853e+00 8.6864836530062717e-01 -7.8769744126077412e-01 -3.4423991564608714e-01 -3.8178565760677872e+00 -1.3932353896583989e+00 1.0524616513892338e+00 -4.4773991919040684e-01 -1.9834266848013618e+00 -1.7554446530043926e+00 4.8219851166731664e-02 1.4373179653098922e+00 -1.7485425685044962e+00 5.3978108396875235e-01 -6.0605355369393987e-01 7.4912261209351805e-01 1.9933448802047982e-01 
      </Neuron>
      <Neuron NSynapses="18">
        -1.1220160327854225e+00 7.6432895142399127e-01 1.2410045861465837e+00 -2.9094283525766489e+00 2.2902580338001659e+00 3.9293013010145308e+00 -1.0057041857904825e+00 -2.5558664069298085e+00 5.9472040317775143e-01 1.0305546688785641e+00 8.0498413542938452e-01 -2.8038340584714200e-01 -1.6379719695066211e+00 6.2642660184908761e-01 1.1144689460541599e+00 -2.4301821635132588e+00 1.1762062680584828e+00 6.9539349850974486e-01 
      </Neuron>
      <Neuron NSynapses="18">
        1.6423447821056736e+00 2.3059162441657204e+00 2.9070906366299432e+00 -8.7063454474444013e-01 -1.2126709595976252e-01 9.5184480722519771e-01 -4.5905240399514585e-01 3.8310180272302002e-01 -2.6689875599603069e-01 -1.9466813887737133e-01 -1.0149487731848277e+00 -1.9964778955278497e+00 -1.4435639787467849e+00 -9.0062255476752795e-01 -1.0697398929691246e+00 1.1688198729764459e+00 -1.3070840435252891e+00 -1.1375383337739555e+00 
      </Neuron>
      <Neuron NSynapses="18">
        1.6421056004020105e+00 -1.6106736641930723e+00 2.5839095251927569e-01 2.5072750218851797e-01 9.4178178309407348e-02 -1.9069920062439076e+00 1.2691894213758408e+00 -1.4168737674603806e+00 -4.8280450276496906e-01 -2.1941811037794098e-01 1.6522269496784476e+00 -3.3508798641327514e-01 -1.7863056785765061e+00 9.0908441891165259e-02 -1.6580430070297139e+00 7.2664178408569424e-01 9.8988821835413765e-01 3.9487455191354931e-01 
      </Neuron>
      <Neuron NSynapses="18">
        -8.5807327467977645e-01 -1.3612279074532083e-01 1.1399862285856441e+00 -2.6386906179034844e+00 1.4801778203880234e+00 -1.0032351010410681e+00 -1.6630609277344441e-01 -5.2979637362183685e-01 7.8669490652185836e-01 -6.2115999019454915e-01 -7.2418990019166440e-01 1.4205958422547731e+00 -1.9035399900995842e-01 -2.3465030860986564e+00 1.6178334826376659e+00 3.0039989562706776e-03 1.4359511248991217e+00 -2.2060065462009577e+00 
      </Neuron>
      <Neuron NSynapses="18">
        1.5765184422429870e+00 -9.9979970238659988e-01 -5.4177451328038617e-01 1.2699669297434566e+00 1.4125639727174761e+00 -3.0526985354695757e+00 -1.0855312570900437e+00 -4.7640407064148454e-01 1.6063561607585577e+00 3.0160318836179895e-01 -7.9323762058859204e-01 1.1721529464732532e+00 1.1492430673983993e+00 -1.4122853601776513e+00 1.0103585206790113e+00 4.0008782700563117e-01 7.5748368281688161e-01 -5.4326374703148383e-01 
      </Neuron>
      <Neuron NSynapses="18">
        1.8028095462739413e+00 -2.4163027582871723e-02 -1.2497553476279029e+00 1.5334775449800089e+00 1.2556685128830314e-01 4.5048029555979585e-01 -2.1615540720636450e+00 1.8391684212826949e+00 -1.3571715005354565e+00 8.5860331704895054e-01 -1.8627670427697618e-01 3.9703590841051384e-01 4.3044973966793365e-01 -3.2858937143088202e-01 8.6251386093237359e-01 6.8285856307105472e-02 -2.3711544660680786e-01 -9.5840997224363067e-01 
      </Neuron>
      <Neuron NSynapses="18">
        1.5985578491416574e+00 -1.0657301279890286e+00 1.8553910546675541e+00 1.9484882875616832e-01 -5.3329232680334993e-01 -7.7401983035703614e-01 1.2961591606694172e+00 1.0000504365010154e+00 1.2706348938811600e+00 -1.2111674301116809e-01 -1.8505041800683215e+00 1.5179830674781334e+00 2.9328819517272939e-02 1.0614744219431662e+00 7.7475228139399033e-01 -9.0403805063943039e-04 3.1414384992434824e-01 -1.6905937557333444e+00 
      </Neuron>
      <Neuron NSynapses="18">
        1.4566278698150070e+00 -1.6379314620947976e+00 -2.3046610492662762e+00 -7.8414420886607517e-01 -2.1077971715926136e+00 -2.3687620316674113e-01 -1.0733646097795833e+00 1.2409522786051954e+00 -9.1403986891283739e-01 -1.2340061812820340e+00 -1.6438750609654722e+00 8.3546718777445506e-01 3.8041080946273664e-01 3.6797464138731617e-01 1.9303865655788056e-02 -4.6745171109735267e-01 2.0264795309001227e+00 9.9819130304156001e-01 
      </Neuron>
      <Neuron NSynapses="18">
        1.4376693430778027e+00 -1.1728068162925250e-01 7.8226990837791144e-01 1.9295841934703153e+00 -1.9359784021866586e+00 -3.5173227836385118e-01 1.2990863119145422e+00 -6.1924056036667716e-02 1.1898830808355820e+00 1.4121028989189504e+00 -9.2715688923734874e-01 1.1630651123607356e+00 1.0012939791951456e+00 1.1057238519737220e+00 1.8294315947852176e+00 -8.1563276045611721e-01 -2.6579069473062567e-01 4.7782067673816286e-01 
      </Neuron>
      <Neuron NSynapses="18">
        1.5310934776933574e-01 -9.0753777920849621e-01 2.6147296436838019e-01 -2.0104247271336946e+00 -1.7546139038724209e+00 -3.1922666284269935e-01 8.3463084674924282e-01 -6.4523645481988756e-01 -4.8690502129233498e-01 -1.1278340247219760e+00 -9.2266877510253553e-01 -4.6844664329840502e-01 -9.6462865327791114e-01 -6.0994167793523812e-01 2.0833678810344095e-01 3.0028723404573265e-01 1.7378139427161549e-01 2.1768528894537173e-01 
      </Neuron>
      <Neuron NSynapses="18">
        5.2352406274216279e-01 1.5843808004329005e+00 -2.2388097334551920e+00 2.3974730660886938e+00 -1.9662169996096326e+00 1.0017685523767885e+00 -8.8427102137838343e-01 -1.9306109413476453e+00 -4.0558511588497920e-01 2.3031360892214288e+00 6.7714508922834060e-01 -7.3362676635225976e-01 -1.0198743112044306e+00 -8.9371654050781058e-01 -1.5143710647986599e+00 7.1605494625641819e-01 -2.6984273682039839e-01 1.3348766876196563e+00 
      </Neuron>
      <Neuron NSynapses="18">
        -1.5168268442440360e+00 1.5288441964667945e+00 4.5292248070285829e-01 1.3099262580069477e+00 9.1350372279259762e-01 -7.2223594436372149e-02 1.2642437691478617e-01 1.0048476259194683e+00 7.1588271178370155e-01 -4.1438511969532338e-01 -6.5650330933404855e-01 1.2092372244822907e+00 -1.2148578912328729e+00 9.6224416405734689e-02 -6.1307677186298881e-01 5.8432266958886214e-01 2.8394747239063889e-01 -1.7337569257146070e+00 
      </Neuron>
      <Neuron NSynapses="18">
        6.6076255343854431e-02 2.1580483388802523e+00 -4.9054950350851556e-01 -9.2000276202403752e-01 -7.7964763473816057e-01 1.0721451725137232e+00 -2.4827282665735959e-01 1.3649292278035627e+00 -1.7436402895991890e-01 1.3797454568004182e+00 -6.0526225207321718e-02 -1.3998182618724340e+00 5.0549478238233281e-01 7.4845385779190410e-01 -1.0195462993595394e+00 -1.5321198736951029e+00 -8.2026913702719451e-01 5.7131902986891647e-01 
      </Neuron>
    </Layer>
    <Layer Index="1" NNeurons="19">
      <Neuron NSynapses="1">
        -1.7463187094510840e-01 
      </Neuron>
      <Neuron NSynapses="1">
        5.0908251074000294e-02 
      </Neuron>
      <Neuron NSynapses="1">
        8.5306929563466216e-01 
      </Neuron>
      <Neuron NSynapses="1">
        -2.2582116769487959e-01 
      </Neuron>
      <Neuron NSynapses="1">
        1.6582809824359918e-01 
      </Neuron>
      <Neuron NSynapses="1">
        1.0561771201022923e+00 
      </Neuron>
      <Neuron NSynapses="1">
        -6.5329536616104344e-01 
      </Neuron>
      <Neuron NSynapses="1">
        -8.7174054730797715e-02 
      </Neuron>
      <Neuron NSynapses="1">
        1.3004000633881452e-01 
      </Neuron>
      <Neuron NSynapses="1">
        1.8925149125116977e-01 
      </Neuron>
      <Neuron NSynapses="1">
        -6.1079755623074738e-01 
      </Neuron>
      <Neuron NSynapses="1">
        -2.7841013801962122e-01 
      </Neuron>
      <Neuron NSynapses="1">
        -1.5624976411966432e-01 
      </Neuron>
      <Neuron NSynapses="1">
        2.3744855988424302e-01 
      </Neuron>
      <Neuron NSynapses="1">
        -4.9967131006900167e-01 
      </Neuron>
      <Neuron NSynapses="1">
        -1.9864580344478988e-01 
      </Neuron>
      <Neuron NSynapses="1">
        1.7450889759954828e+00 
      </Neuron>
      <Neuron NSynapses="1">
        2.7116190914410265e-01 
      </Neuron>
      <Neuron NSynapses="1">
        5.7880190213092864e-01 
      </Neuron>
    </Layer>
    <Layer Index="2" NNeurons="1">
      <Neuron NSynapses="0"/>
    </Layer>
  </Weights>
</MethodSetup>
