<?xml version="1.0"?>
<MethodSetup Method="MLP::MLP">
  <GeneralInfo>
    <Info name="TMVA Release" value="4.0.1 [262145]"/>
    <Info name="ROOT Release" value="5.24/00 [333824]"/>
    <Info name="Creator" value="twig"/>
    <Info name="Date" value="Thu Dec 10 11:27:45 2009"/>
    <Info name="Host" value="Darwin dyn1205-245.wlan.ic.ac.uk 10.0.0 Darwin Kernel Version 10.0.0: Fri Jul 31 22:47:34 PDT 2009; root:xnu-1456.1.25~1/RELEASE_I386 i386"/>
    <Info name="Dir" value="/Users/twig/gbmsci/tmva"/>
    <Info name="Training events" value="11437"/>
    <Info name="TrainingTime" value="332.981"/>
    <Info name="AnalysisType" value="Classification"/>
  </GeneralInfo>
  <Options>
    <Option name="NCycles" modified="Yes">600</Option>
    <Option name="HiddenLayers" modified="Yes">N+5</Option>
    <Option name="NeuronType" modified="Yes">tanh</Option>
    <Option name="NeuronInputType" modified="No">sum</Option>
    <Option name="V" modified="Yes">False</Option>
    <Option name="VerbosityLevel" modified="No">Default</Option>
    <Option name="VarTransform" modified="Yes">N</Option>
    <Option name="H" modified="Yes">False</Option>
    <Option name="CreateMVAPdfs" modified="Yes">True</Option>
    <Option name="IgnoreNegWeightsInTraining" modified="No">False</Option>
    <Option name="TrainingMethod" modified="No">BP</Option>
    <Option name="LearningRate" modified="No">2.000000e-02</Option>
    <Option name="DecayRate" modified="No">1.000000e-02</Option>
    <Option name="TestRate" modified="Yes">5</Option>
    <Option name="Sampling" modified="No">1.000000e+00</Option>
    <Option name="SamplingEpoch" modified="No">1.000000e+00</Option>
    <Option name="SamplingImportance" modified="No">1.000000e+00</Option>
    <Option name="SamplingTraining" modified="No">True</Option>
    <Option name="SamplingTesting" modified="No">False</Option>
    <Option name="ResetStep" modified="No">50</Option>
    <Option name="Tau" modified="No">3.000000e+00</Option>
    <Option name="BPMode" modified="No">sequential</Option>
    <Option name="BatchSize" modified="No">-1</Option>
    <Option name="ConvergenceImprove" modified="No">0.000000e+00</Option>
    <Option name="ConvergenceTests" modified="No">-1</Option>
  </Options>
  <Variables NVar="13">
    <Variable VarIndex="0" Expression="lv_met_Et" Label="lv_met_Et" Title="lv_met_Et" Unit="" Internal="lv_met_Et" Type="F" Min="0.182212" Max="58682.1"/>
    <Variable VarIndex="1" Expression="lv_electron_Et" Label="lv_electron_Et" Title="lv_electron_Et" Unit="" Internal="lv_electron_Et" Type="F" Min="15.0001" Max="446.447"/>
    <Variable VarIndex="2" Expression="lv_tau_Et" Label="lv_tau_Et" Title="lv_tau_Et" Unit="" Internal="lv_tau_Et" Type="F" Min="20.0109" Max="2125.79"/>
    <Variable VarIndex="3" Expression="dphielectau" Label="dphielectau" Title="dphielectau" Unit="" Internal="dphielectau" Type="F" Min="0.00685239" Max="3.14149"/>
    <Variable VarIndex="4" Expression="dphielecmet" Label="dphielecmet" Title="dphielecmet" Unit="" Internal="dphielecmet" Type="F" Min="4.64916e-05" Max="3.14154"/>
    <Variable VarIndex="5" Expression="mtelecmet" Label="mtelecmet" Title="mtelecmet" Unit="" Internal="mtelecmet" Type="F" Min="0.00032126" Max="3124.58"/>
    <Variable VarIndex="6" Expression="electronEcalIso" Label="electronEcalIso" Title="electronEcalIso" Unit="" Internal="electronEcalIso" Type="F" Min="0" Max="103.247"/>
    <Variable VarIndex="7" Expression="electronTrackIso" Label="electronTrackIso" Title="electronTrackIso" Unit="" Internal="electronTrackIso" Type="F" Min="0" Max="89.622"/>
    <Variable VarIndex="8" Expression="tauTrack" Label="tauTrack" Title="tauTrack" Unit="" Internal="tauTrack" Type="I" Min="0" Max="11"/>
    <Variable VarIndex="9" Expression="tauLeadTrk" Label="tauLeadTrk" Title="tauLeadTrk" Unit="" Internal="tauLeadTrk" Type="I" Min="0" Max="1"/>
    <Variable VarIndex="10" Expression="tauECALIso" Label="tauECALIso" Title="tauECALIso" Unit="" Internal="tauECALIso" Type="I" Min="0" Max="1"/>
    <Variable VarIndex="11" Expression="tauElectron" Label="tauElectron" Title="tauElectron" Unit="" Internal="tauElectron" Type="I" Min="0" Max="1"/>
    <Variable VarIndex="12" Expression="tauCharge" Label="tauCharge" Title="tauCharge" Unit="" Internal="tauCharge" Type="I" Min="-4" Max="4"/>
  </Variables>
  <Transformations NTransformations="1">
    <Transform Name="Normalize" NVariables="13" NTargets="0">
      <Class ClassIndex="0">
        <Variables>
          <Variable VarIndex="0" Min="2.7812945842742920e-01" Max="5.8682050781250000e+04"/>
          <Variable VarIndex="1" Min="1.5000106811523438e+01" Max="4.4644659423828125e+02"/>
          <Variable VarIndex="2" Min="2.0024724960327148e+01" Max="8.9713427734375000e+02"/>
          <Variable VarIndex="3" Min="1.1445329524576664e-02" Max="3.1414437294006348e+00"/>
          <Variable VarIndex="4" Min="6.8902969360351562e-05" Max="3.1415369510650635e+00"/>
          <Variable VarIndex="5" Min="7.5125123839825392e-04" Max="3.1245805664062500e+03"/>
          <Variable VarIndex="6" Min="0.0000000000000000e+00" Max="1.0324716949462891e+02"/>
          <Variable VarIndex="7" Min="0.0000000000000000e+00" Max="8.9621971130371094e+01"/>
          <Variable VarIndex="8" Min="0.0000000000000000e+00" Max="1.1000000000000000e+01"/>
          <Variable VarIndex="9" Min="0.0000000000000000e+00" Max="1.0000000000000000e+00"/>
          <Variable VarIndex="10" Min="0.0000000000000000e+00" Max="1.0000000000000000e+00"/>
          <Variable VarIndex="11" Min="0.0000000000000000e+00" Max="1.0000000000000000e+00"/>
          <Variable VarIndex="12" Min="-4.0000000000000000e+00" Max="4.0000000000000000e+00"/>
        </Variables>
        <Targets/>
      </Class>
      <Class ClassIndex="1">
        <Variables>
          <Variable VarIndex="0" Min="1.8221195042133331e-01" Max="7.6807250976562500e+03"/>
          <Variable VarIndex="1" Min="1.5005379676818848e+01" Max="2.0038124084472656e+02"/>
          <Variable VarIndex="2" Min="2.0010868072509766e+01" Max="2.1257890625000000e+03"/>
          <Variable VarIndex="3" Min="6.8523883819580078e-03" Max="3.1414911746978760e+00"/>
          <Variable VarIndex="4" Min="4.6491619286825880e-05" Max="3.1414105892181396e+00"/>
          <Variable VarIndex="5" Min="3.2126007135957479e-04" Max="1.1749370117187500e+03"/>
          <Variable VarIndex="6" Min="0.0000000000000000e+00" Max="3.2081275939941406e+01"/>
          <Variable VarIndex="7" Min="0.0000000000000000e+00" Max="3.2098930358886719e+01"/>
          <Variable VarIndex="8" Min="0.0000000000000000e+00" Max="8.0000000000000000e+00"/>
          <Variable VarIndex="9" Min="0.0000000000000000e+00" Max="1.0000000000000000e+00"/>
          <Variable VarIndex="10" Min="0.0000000000000000e+00" Max="1.0000000000000000e+00"/>
          <Variable VarIndex="11" Min="0.0000000000000000e+00" Max="1.0000000000000000e+00"/>
          <Variable VarIndex="12" Min="-3.0000000000000000e+00" Max="3.0000000000000000e+00"/>
        </Variables>
        <Targets/>
      </Class>
      <Class ClassIndex="2">
        <Variables>
          <Variable VarIndex="0" Min="1.8221195042133331e-01" Max="5.8682050781250000e+04"/>
          <Variable VarIndex="1" Min="1.5000106811523438e+01" Max="4.4644659423828125e+02"/>
          <Variable VarIndex="2" Min="2.0010868072509766e+01" Max="2.1257890625000000e+03"/>
          <Variable VarIndex="3" Min="6.8523883819580078e-03" Max="3.1414911746978760e+00"/>
          <Variable VarIndex="4" Min="4.6491619286825880e-05" Max="3.1415369510650635e+00"/>
          <Variable VarIndex="5" Min="3.2126007135957479e-04" Max="3.1245805664062500e+03"/>
          <Variable VarIndex="6" Min="0.0000000000000000e+00" Max="1.0324716949462891e+02"/>
          <Variable VarIndex="7" Min="0.0000000000000000e+00" Max="8.9621971130371094e+01"/>
          <Variable VarIndex="8" Min="0.0000000000000000e+00" Max="1.1000000000000000e+01"/>
          <Variable VarIndex="9" Min="0.0000000000000000e+00" Max="1.0000000000000000e+00"/>
          <Variable VarIndex="10" Min="0.0000000000000000e+00" Max="1.0000000000000000e+00"/>
          <Variable VarIndex="11" Min="0.0000000000000000e+00" Max="1.0000000000000000e+00"/>
          <Variable VarIndex="12" Min="-4.0000000000000000e+00" Max="4.0000000000000000e+00"/>
        </Variables>
        <Targets/>
      </Class>
    </Transform>
  </Transformations>
  <MVAPdfs>
    <PDF Name="MLP_PDFSig" MinNSmooth="0" MaxNSmooth="0" InterpolMethod="2" KDE_type="1" KDE_iter="1" KDE_border="1" KDE_finefactor="1.0000000000000000e+00">
      <Histogram Name="MLP_tr_S_original" NBins="228" XMin="-2.0011236667633057e+00" XMax="1.9333705902099609e+00" HasEquidistantBins="1">
        0 0 0 0 0 0 0 0 0 0 0 0 0 0 0 0 0 0 0 0 0 0 0 0 0 0 0 0 0 0 0 0 0 0 0 0 0.0211802 0 0 0 0 0 0 0 0 0 0 0 0 0 0 0.0211802 0 0 0 0 0 0.0211802 0.0211802 0.0423604 0.275342 0.148261 0.254162 0.593045 0.444784 0.381243 0.571865 0.465964 0.508325 0.444784 0.614226 0.571865 0.656586 0.487144 0.656586 0.783667 0.953109 0.741307 0.868388 0.826027 0.720126 0.762487 0.910748 1.24963 0.826027 0.741307 0.847208 0.593045 0.529505 0.529505 0.338883 0.571865 0.317703 0.190622 0.296523 0.169442 0.275342 0.254162 0.423604 0.211802 0.317703 0.296523 0.169442 0.275342 0.360063 0.381243 0.317703 0.232982 0.169442 0.338883 0.232982 0.211802 0.275342 0.127081 0.317703 0.381243 0.296523 0.360063 0.423604 0.317703 0.360063 0.338883 0.487144 0.402424 0.465964 0.211802 0.529505 0.550685 0.444784 0.148261 0.614226 0.423604 0.487144 0.296523 0.444784 0.698946 0.550685 0.190622 0.360063 0.571865 0.593045 0.423604 0.402424 0.635406 0.571865 0.677766 0.741307 0.487144 0.614226 0.677766 0.614226 0.593045 0.508325 0.614226 0.677766 0.571865 0.550685 0.550685 0.720126 0.508325 0.635406 0.465964 0.550685 0.741307 0.444784 0.423604 0.529505 0.381243 0.360063 0.614226 0.529505 0.487144 0.381243 0.381243 0.360063 0.338883 0.211802 0.423604 0.211802 0.127081 0.254162 0.211802 0.127081 0.0635406 0.0423604 0.0211802 0.0211802 0 0.0847208 0.0211802 0.0423604 0.0423604 0.0211802 0.0211802 0.0423604 0 0.0211802 0 0 0 0 0 0 0 0.0211802 0.0211802 0 0 0 0 0 0 0 0 0 0 0 0 0.0211802 0 0 0 0 0 0 0 0 0 
      </Histogram>
    </PDF>
    <PDF Name="MLP_PDFBkg" MinNSmooth="0" MaxNSmooth="0" InterpolMethod="2" KDE_type="1" KDE_iter="1" KDE_border="1" KDE_finefactor="1.0000000000000000e+00">
      <Histogram Name="MLP_tr_B_original" NBins="228" XMin="-2.0011236667633057e+00" XMax="1.9333705902099609e+00" HasEquidistantBins="1">
        0.0066608 0 0.0066608 0 0 0 0 0 0 0 0 0 0 0 0 0 0 0 0 0 0 0 0 0 0 0 0 0 0 0 0.0066608 0.0066608 0 0 0 0 0 0.0066608 0.0066608 0 0.0066608 0.0133216 0 0 0.0133216 0.0199824 0.0066608 0.0133216 0.0199824 0.0399648 0.033304 0.0466256 0.033304 0.0999121 0.0532864 0.0532864 0.0532864 0.0932513 0.119894 0.366344 0.939173 1.59859 2.69763 2.95074 2.79754 2.86415 3.01068 2.73759 2.19807 2.1581 1.93829 1.76511 1.93163 1.48536 1.46538 1.50534 1.55863 1.41209 1.31218 1.17896 1.40543 1.25889 1.24557 1.11235 1.21893 1.00578 0.779314 0.526204 0.472917 0.353023 0.446274 0.313058 0.306397 0.239789 0.239789 0.239789 0.199824 0.16652 0.206485 0.173181 0.133216 0.146538 0.173181 0.133216 0.16652 0.159859 0.193163 0.16652 0.113234 0.133216 0.133216 0.126555 0.113234 0.119894 0.0865905 0.113234 0.0732688 0.119894 0.133216 0.0932513 0.113234 0.0599472 0.133216 0.0865905 0.119894 0.119894 0.0865905 0.0932513 0.0865905 0.0599472 0.0999121 0.133216 0.066608 0.0599472 0.113234 0.0599472 0.0599472 0.0732688 0.0599472 0.0932513 0.0599472 0.0399648 0.0532864 0.0266432 0.0399648 0.0199824 0.066608 0.0532864 0.0199824 0.033304 0.033304 0.0399648 0.0199824 0.0399648 0.0532864 0.0266432 0.0399648 0.0532864 0.033304 0.0133216 0.0266432 0.0066608 0.0133216 0.0066608 0.0199824 0.0066608 0.0133216 0.0066608 0.0066608 0.0066608 0.0199824 0.0066608 0.0066608 0.0066608 0.0066608 0.0066608 0.0066608 0 0.0066608 0.0133216 0 0.0066608 0.0066608 0 0.0066608 0 0 0 0 0 0 0 0 0 0 0 0 0 0.0066608 0.0066608 0 0.0066608 0 0 0 0 0 0 0 0 0 0 0 0 0 0 0 0 0 0 0 0 0 0 0 0 0 0 
      </Histogram>
    </PDF>
  </MVAPdfs>
  <Weights NLayers="3">
    <Layer Index="0" NNeurons="14">
      <Neuron NSynapses="18">
        1.0364219094206625e-01 -4.3180176256203115e-02 1.5737447004249552e+00 1.0688447381834687e+00 1.0916907746452513e+00 1.3498155792720132e+00 1.1037279995828528e+00 -1.6181166292468074e+00 -1.4995018189142042e+00 1.3659199232945911e+00 -1.6486890935861491e+00 -3.9382079563233238e-02 -8.3916701400008764e-01 -1.3270182548020699e+00 6.6456820967006280e-02 1.8074146815928447e+00 -9.9024847056401766e-01 -2.0553400537483077e+00 
      </Neuron>
      <Neuron NSynapses="18">
        1.4660464583985858e-02 7.0199702406019018e+00 -9.7001332534685014e-01 4.9940853018953248e+00 -2.2946068705802616e+00 2.8665793536500606e-01 8.0375715907285628e-01 1.9684696503567554e+00 -2.7503014275906761e+00 -2.0707386054179118e+00 5.6880841782047602e+00 2.9697578905513877e-01 -2.1503331505518277e+00 7.9270403713640503e-01 -5.7900704898615307e-01 -5.9594976664934052e-01 1.5939413772201985e-01 6.6244611194862768e-01 
      </Neuron>
      <Neuron NSynapses="18">
        8.3009623964717061e-01 -6.3970368105488862e-01 6.9349924360452764e-01 -3.3252717999962683e-01 -1.7492516899824129e+00 1.0040855525192691e-02 -2.0675821256121467e+00 -5.4492402533061413e-01 -1.3213412742990043e+00 2.0186703812141578e+00 4.1435934149099927e+00 -1.4074586439139898e+00 8.6262649143358447e-02 8.4487149063217326e-01 1.5312847468886999e+00 3.2205703467551122e-01 1.9838999578624639e+00 -6.9606937853107576e-01 
      </Neuron>
      <Neuron NSynapses="18">
        8.1581207256710542e-01 3.1610410664996262e+00 3.4327029340614357e-01 2.4732300321294516e+00 -4.1267633534975418e-01 3.6326843165917572e-01 1.7778062105867980e+00 -1.7456307683433487e+00 -1.6537031318489406e+00 -1.8670178325410332e+00 1.8739714056400967e+00 3.7603053666198656e-02 -6.2455799789698485e-01 -1.0456443018338526e+00 -6.7813185983994706e-01 1.1940807934622952e+00 -3.0256180715550207e-01 -1.4926898919889791e+00 
      </Neuron>
      <Neuron NSynapses="18">
        6.8832372376461851e-02 -3.2023788861727090e-02 -1.3794286003200642e+00 1.5235996702854633e+00 8.4199758994163976e-01 1.3959683136160361e-01 7.1159327828097618e-01 -1.2436154254113485e+00 1.9669246183428737e-01 1.2139769825974631e+00 3.0483661688887009e-01 3.1519244834861759e-01 3.0747726029214095e+00 1.8515388639247915e-01 2.1680251854552429e-01 6.2486823178004014e-01 5.1914910775923131e-03 1.1857711384084926e+00 
      </Neuron>
      <Neuron NSynapses="18">
        -1.6998450936602219e+00 -3.5537026910072136e+00 7.2239689026787579e-01 1.1239439628663028e+00 -1.6333744118156082e+00 -1.1335296766404883e+00 -1.7080719711456491e+00 -1.9996763107713871e+00 -8.1911258917904828e-01 6.3378263090627759e-02 -1.1799829847885384e+00 2.2699207951467724e+00 1.4084649576987975e+00 -1.2558058742088936e+00 9.4125046356992870e-02 1.9865759537156740e+00 -1.4999361744213118e+00 -1.7776052829640092e+00 
      </Neuron>
      <Neuron NSynapses="18">
        -1.1588738435091264e+00 -1.8929358143390151e-01 -3.8417557233547456e-01 2.7120410102693846e+00 -5.9809164542936843e-01 -1.5144975880237170e+00 1.6193084501669119e+00 -1.1123606649947217e+00 8.8788867934976068e-01 6.6967611102983093e-01 4.4015797436920645e-01 -5.9210778669774422e-01 1.3982787421165499e+00 -1.5651359409442278e+00 -1.0819522022173054e+00 1.5516887310984164e+00 -1.2859608908359743e-01 -1.7997309930485750e+00 
      </Neuron>
      <Neuron NSynapses="18">
        -8.4116500509685199e-01 -5.4399263011082599e-01 -6.0247921188710107e-01 8.6245780513811421e-01 2.7868435127187785e-01 -1.9587539980741113e+00 -1.6391050154530231e+00 -2.0512145849108096e-01 1.1669366993898840e+00 1.1303621264609682e+00 4.0931102740368278e-02 5.8914809688439991e-02 2.8595012102492934e-01 -2.1499885085698169e+00 -1.5252537908871906e+00 1.8257537080882740e+00 -4.2400661725147515e-01 -1.7718104493747988e+00 
      </Neuron>
      <Neuron NSynapses="18">
        -4.5237340962780137e-01 -3.4481334688540555e+00 8.3995287704665378e-01 -4.2397656159326056e+00 -4.9916179068341560e-01 -1.1963151851162455e+00 6.3526672807450357e-01 8.3090245441911792e-01 2.6687912600939123e+00 4.9125502579999758e-01 -3.7251082938073106e+00 -9.3865512023116493e-01 9.6080286948211524e-01 -1.0149530445127047e-01 8.9799377267545333e-01 1.7912886284385550e+00 4.7974841783870198e-01 -1.7781591262097177e-01 
      </Neuron>
      <Neuron NSynapses="18">
        -1.1598228602232825e+00 2.9717658873743702e-01 -5.8205012277043118e-02 8.4250637762821567e-01 4.3870012484375348e-01 -1.2946678289902660e+00 -5.1485722078544960e-01 -1.2335314619465851e+00 7.9385316763578806e-01 -1.7894746619193247e-01 7.7974876778676061e-01 -1.5071664742579860e-01 -6.2945181432345487e-01 -2.6438186759469523e-01 -1.2186289889471262e-01 1.0272569543174945e+00 -6.8677701311924480e-02 -3.3040622750598425e-01 
      </Neuron>
      <Neuron NSynapses="18">
        -1.2488809620678887e+00 -5.1930569833478740e-02 2.5801032407796848e-01 1.1464978748796753e-01 8.0004137000272246e-01 1.9250905950225865e+00 5.9418876818922750e-01 -1.5690881254580011e+00 1.0188133025830863e+00 7.3562626227667557e-02 6.9940351995325101e-01 -1.6753920419172713e-01 1.5905988529082160e-01 4.7271941802981571e-01 1.8911391650218656e+00 -1.1309400853473048e+00 6.4371279347740021e-02 8.8825470978557830e-01 
      </Neuron>
      <Neuron NSynapses="18">
        -1.5020170186401711e+00 3.6252125319820450e+00 6.9469699205393462e-02 -3.2205410012727964e+00 5.4897408068101416e-01 2.7084321418747620e-01 -7.1712467432272953e-01 2.5813718637833316e-01 2.1326378523694456e+00 -1.5597510209900904e+00 -9.7630245369971044e-02 2.9855103309126918e-01 -1.1866912309204369e+00 7.8059667412709877e-01 -4.1518369807547535e-02 -1.6649668239502641e-01 -3.1859014823811227e-01 1.4566806633431535e+00 
      </Neuron>
      <Neuron NSynapses="18">
        5.0719761684567266e-01 -5.3342547083483731e-02 -5.4022823952831908e-02 -5.2400104475791320e-01 -2.6017779178063893e-01 1.7855709304369430e-01 -4.6716746425287675e-01 -4.9204822463861481e-01 -6.4302301576801824e-01 3.2104417529112433e-01 4.1296860633788768e-01 2.6985585881109664e-01 6.1955324813455626e-01 -1.8988978342351599e+00 -4.2845111695055066e-01 1.1755176025473570e+00 2.3406758412421813e-01 3.9080392977705986e-01 
      </Neuron>
      <Neuron NSynapses="18">
        -4.7772640329933375e-01 -8.1670836298147886e-01 1.1457269437481228e+00 1.5014903599251288e+00 -1.5721041270196199e+00 -9.4471277620639560e-01 2.1796576752694077e+00 1.5178812566185989e+00 2.1496668400216207e-01 1.0633631049724963e+00 7.1923052238349927e-01 -4.5171986502188344e-01 -1.7617656235450945e+00 1.8353915621586290e+00 1.8723508464607852e+00 -1.1873217695321825e+00 -5.4653176024672712e-01 1.5340133935900295e+00 
      </Neuron>
    </Layer>
    <Layer Index="1" NNeurons="19">
      <Neuron NSynapses="1">
        1.7482346623113473e-01 
      </Neuron>
      <Neuron NSynapses="1">
        3.8801567908075241e-01 
      </Neuron>
      <Neuron NSynapses="1">
        -3.8990045447252741e-01 
      </Neuron>
      <Neuron NSynapses="1">
        4.9261631636440451e-01 
      </Neuron>
      <Neuron NSynapses="1">
        8.4119200119717574e-01 
      </Neuron>
      <Neuron NSynapses="1">
        2.6733015317474779e-01 
      </Neuron>
      <Neuron NSynapses="1">
        -7.5680381325907287e-01 
      </Neuron>
      <Neuron NSynapses="1">
        2.8629296380150854e-01 
      </Neuron>
      <Neuron NSynapses="1">
        -1.8788171926466116e-01 
      </Neuron>
      <Neuron NSynapses="1">
        6.3758346626332907e-01 
      </Neuron>
      <Neuron NSynapses="1">
        4.1999220551632682e-01 
      </Neuron>
      <Neuron NSynapses="1">
        -5.1672426794140291e-01 
      </Neuron>
      <Neuron NSynapses="1">
        -5.3229326899878249e-01 
      </Neuron>
      <Neuron NSynapses="1">
        -9.0767827923461075e-01 
      </Neuron>
      <Neuron NSynapses="1">
        -1.2760607952221559e-01 
      </Neuron>
      <Neuron NSynapses="1">
        -4.3565761625720750e-01 
      </Neuron>
      <Neuron NSynapses="1">
        2.2567063935307913e-01 
      </Neuron>
      <Neuron NSynapses="1">
        -1.4579838449526337e+00 
      </Neuron>
      <Neuron NSynapses="1">
        1.5081899602031328e+00 
      </Neuron>
    </Layer>
    <Layer Index="2" NNeurons="1">
      <Neuron NSynapses="0"/>
    </Layer>
  </Weights>
</MethodSetup>
